
\data\
ngram 1=29
ngram 2=477
ngram 3=3209
ngram 4=10307
ngram 5=21400

\1-grams:
-99	<s>	-2.036509
-1.732546	</s>
-0.7501625	<space>	-2.296285
-1.184308	A	-1.739625
-1.864401	B	-2.181608
-1.701042	C	-2.145813
-1.558002	D	-1.993492
-1.020499	E	-0.03151797
-1.797056	F	-2.218745
-1.829907	G	-1.859287
-1.407859	H	-2.101231
-1.227847	I	-2.031497
-2.982195	J	-2.872069
-2.176015	K	-1.978902
-1.44577	L	-1.63326
-1.620666	M	-2.108593
-1.254226	N	1.53262
-1.189582	O	-0.354068
-1.900734	P	-2.060819
-2.926495	Q	-2.986907
-1.317356	R	-0.4186918
-1.327461	S	-0.418462
-1.145804	T	-1.9461
-1.52727	U	-1.812335
-2.038232	V	-2.836049
-1.766516	W	-2.238085
-2.8107	X	-1.287672
-1.57093	Y	-2.245803
-4.482798	Z	-0.5626487

\2-grams:
-1.206618	<s> A	-2.380281
-1.278417	<s> B	-2.254793
-1.648023	<s> C	-2.596125
-1.780649	<s> D	-2.799411
-2.051716	<s> E	-2.843876
-1.949053	<s> F	-2.775968
-1.885384	<s> G	-2.884637
-1.388958	<s> H	-2.220945
-0.5323253	<s> I	-2.354353
-2.625747	<s> J	-2.528285
-3.739256	<s> K	-2.958079
-2.023687	<s> L	-2.803321
-1.227807	<s> M	-2.001119
-1.683739	<s> N	-2.904841
-1.364484	<s> O	-2.643267
-1.997358	<s> P	-2.56893
-3.739256	<s> Q	-0
-2.528837	<s> R	-2.850079
-1.796443	<s> S	-2.813064
-0.8994272	<s> T	-2.68142
-2.186414	<s> U	-2.930274
-2.750686	<s> V	-2.163655
-1.034682	<s> W	-2.333125
-1.066439	<s> Y	-2.830611
-0.9494041	<space> A	-1.818332
-1.344495	<space> B	-1.731775
-1.366335	<space> C	-2.327006
-1.450523	<space> D	-2.051695
-1.597407	<space> E	-2.619572
-1.525345	<space> F	-2.65387
-1.723052	<space> G	-2.603891
-1.298501	<space> H	-2.172291
-1.010436	<space> I	-2.219851
-2.346868	<space> J	5.911704e-05
-2.145733	<space> K	-2.671448
-1.570704	<space> L	-2.659345
-1.193157	<space> M	-2.001041
-1.529855	<space> N	-2.588009
-1.278225	<space> O	-1.931574
-1.512962	<space> P	-2.232862
-2.301706	<space> Q	-0
-1.759942	<space> R	-2.756886
-1.215434	<space> S	-1.820864
-0.8871451	<space> T	-1.84294
-1.954918	<space> U	-2.799312
-2.083086	<space> V	-1.452952e-05
-1.270173	<space> W	-1.928663
-1.403333	<space> Y	-2.830036
-2.414317	A </s>
-1.161148	A <space>	-1.957267
-1.563857	A B	-2.52033
-1.379846	A C	-2.60185
-1.381593	A D	-1.437875
-4.287494	A E	-2.989806
-1.990715	A F	-2.871606
-1.68614	A G	-2.355764
-2.872955	A H	-2.960799
-1.608728	A I	-2.563088
-1.798321	A K	-1.802349
-1.034893	A L	-2.156018
-1.406829	A M	-2.179022
-0.8237371	A N	-1.49827
-3.173985	A O	-2.956681
-1.872955	A P	-2.567888
-0.910349	A R	-1.895226
-1.127685	A S	-1.376926
-0.8395313	A T	-1.731401
-1.821802	A U	-2.728147
-1.361072	A V	-0.7623376
-2.453826	A W	-2.816538
-2.475015	A X	-2.906608
-1.404977	A Y	-2.495038
-4.287494	A Z	-2.953004
-2.794922	B </s>
-2.493892	B <space>	-2.898911
-1.122825	B A	-2.510358
-3.607401	B B	-2.989069
-0.5265786	B E	-1.68415
-1.865504	B I	-2.767932
-1.949825	B J	-2.925448
-0.9688476	B L	-2.681618
-0.9921487	B O	-2.692645
-0.9853628	B R	-2.75698
-1.604591	B S	-2.478158
-1.891833	B T	-2.749357
-0.6962788	B U	-2.610878
-2.493892	B V	-2.967089
-1.388382	B Y	-2.555784
-2.958281	C </s>
-1.715243	C <space>	-2.374841
-0.8544774	C A	-2.423605
-1.740797	C C	-2.609781
-0.7474278	C E	-1.929301
-0.8863991	C H	-1.674242
-1.122591	C I	-2.409394
-1.221885	C K	-2.039108
-1.414213	C L	-2.793481
-0.8044664	C O	-2.517693
-3.77076	C Q	-0
-1.657251	C R	-2.709253
-2.958281	C S	-2.773517
-0.9539599	C T	-2.51866
-1.378498	C U	-2.635398
-2.356221	C Y	-2.591682
-1.360959	D </s>
-0.3550768	D <space>	-0.0001117182
-1.539029	D A	-2.637502
-3.913801	D B	-2.981868
-2.256224	D D	-2.918511
-0.82486	D E	-1.529588
-2.92523	D F	-2.938253
-2.6242	D G	-2.92495
-1.116794	D I	-2.395747
-3.913801	D J	-2.914466
-1.768883	D L	-2.853618
-2.22626	D M	-2.961383
-1.870873	D N	-2.794562
-0.9123932	D O	-2.174695
-1.669958	D R	-2.509403
-1.811287	D S	-2.741738
-1.72111	D U	-2.77015
-2.360959	D V	-2.947558
-2.703382	D W	-2.934744
-1.551093	D Y	-2.580283
-1.40456	E </s>
-0.4821233	E <space>	-0.0001925447
-1.255907	E A	-2.02127
-3.240884	E B	-2.946309
-1.547157	E C	-1.438035
-1.303366	E D	-2.273038
-1.516608	E E	-2.51516
-2.101005	E F	-1.965284
-2.50849	E G	-2.522121
-2.898461	E H	-2.471361
-2.161703	E I	-2.764741
-2.793726	E K	-2.49121
-1.38476	E L	-1.656539
-1.694341	E M	-2.285804
-1.029229	E N	-1.624378
-2.395786	E O	-2.855134
-2.133674	E P	-2.041273
-2.825911	E Q	-0
-0.8592274	E R	-1.415379
-1.175678	E S	-1.37693
-1.634503	E T	-1.330191
-3.638824	E U	-2.947257
-1.643189	E V	-0.7623045
-2.076531	E W	-2.57589
-1.927017	E X	-1.534613
-2.258613	E Y	-1.834447
-1.932849	F </s>
-0.460867	F <space>	-1.020911
-1.049354	F A	-2.394445
-0.9729657	F E	-2.095901
-1.377968	F F	-2.454978
-1.146264	F I	-2.640033
-1.862267	F L	-2.796371
-0.7812804	F O	-2.690778
-1.223778	F R	-2.756936
-3.674746	F S	-2.980347
-1.318199	F T	-2.749272
-1.363957	F U	-2.612218
-2.862267	F Y	-2.657638
-1.317533	G </s>
-0.5229915	G <space>	-0.9111041
-1.232819	G A	-2.603473
-0.8000328	G E	-2.142187
-2.431476	G G	-2.881677
-0.972084	G H	-2.40776
-1.297938	G I	-2.525059
-1.668049	G L	-2.742393
-3.641895	G M	-2.858746
-2.016503	G N	-2.698593
-1.065989	G O	-2.631709
-1.390084	G R	-2.716887
-1.699083	G S	-2.667541
-2.653325	G T	-2.800815
-1.422876	G U	-2.856892
-1.414443	G W	-2.916268
-1.788024	G Y	-2.592577
-2.137521	H </s>
-1.063944	H <space>	-1.118731
-0.5520602	H A	-2.291398
-2.950434	H B	-2.953361
-0.4675607	H E	-2.071563
-4.063943	H F	-2.980796
-0.8869131	H I	-2.589699
-2.774343	H L	-2.93401
-3.075373	H M	-2.776641
-2.598252	H N	-2.855323
-1.082672	H O	-2.13977
-1.719985	H R	-2.763793
-2.707396	H S	-2.773508
-1.574771	H T	-2.577504
-2.190766	H U	-2.782978
-1.950434	H Y	-2.550667
-4.243955	I </s>
-0.8171066	I <space>	-1.698891
-1.723906	I A	-2.469473
-2.024936	I B	-2.304192
-1.528386	I C	-2.30751
-1.531109	I D	-2.325524
-1.539382	I E	-2.253131
-1.598968	I F	-2.533425
-1.653325	I G	-2.74485
-4.243955	I H	-2.962528
-1.984319	I K	-2.813929
-1.348691	I L	-2.216343
-1.571138	I M	-2.281704
-0.6529635	I N	-1.233791
-1.374572	I O	-2.653071
-2.691114	I P	-2.756034
-1.477234	I R	-2.131811
-0.7990193	I S	-1.188535
-0.9256485	I T	-1.474454
-1.664321	I V	-0.7623275
-2.954355	I X	-2.930028
-3.431476	I Z	-2.523746
-0.3870935	J A	-2.963377
-0.8020668	J E	-2.943572
-0.7477092	J O	-2.884472
-0.5979469	J U	-2.80341
-1.42261	K </s>
-0.4340901	K <space>	-1.666828
-3.295787	K A	-2.987979
-1.881248	K B	-2.981868
-0.5912134	K E	-2.256761
-1.03615	K I	-2.758955
-1.830096	K L	-2.791236
-0.739015	K N	-2.904848
-3.295787	K R	-2.99603
-1.553889	K S	-2.804747
-2.483308	K T	-2.971459
-1.657251	L </s>
-0.8623372	L <space>	-0.0001562427
-1.182145	L A	-2.289126
-2.912523	L B	-2.96597
-3.213553	L C	-2.903785
-1.16823	L D	-2.345393
-0.8378899	L E	-2.016608
-1.9018	L F	-2.807774
-1.78219	L G	-2.860903
-1.020429	L I	-2.384067
-2.116643	L K	-2.338235
-0.7821897	L L	-2.486208
-2.514583	L M	-2.804608
-4.026032	L N	-2.95151
-1.238122	L O	-2.517272
-3.037462	L P	-2.968596
-2.514583	L R	-2.893484
-1.833342	L S	-2.627477
-1.923519	L T	-2.0132
-1.842486	L U	-2.601004
-1.833342	L W	-2.928235
-0.8508826	L Y	-2.580268
-1.623684	M </s>
-0.9051182	M <space>	-0.7403522
-0.8198592	M A	-2.065982
-1.959476	M B	-2.463038
-0.5564985	M E	-1.982211
-3.851136	M F	-2.921442
-1.070174	M I	-2.272416
-3.038657	M L	-2.93401
-1.892529	M M	-2.643981
-3.851136	M N	-2.991284
-1.077236	M O	-2.545887
-1.488429	M P	-2.113905
-1.44206	M R	-2.84973
-1.759904	M S	-2.545889
-1.331087	M U	-2.800079
-1.023717	M Y	-2.538179
-1.496612	N </s>
-0.5995963	N <space>	5.321624e-06
-1.559999	N A	-2.523747
-1.942699	N B	-2.599763
-1.446056	N C	-2.451475
-0.9441994	N D	-1.789484
-0.976153	N E	-1.535473
-2.043369	N F	-2.653909
-0.9641881	N G	-2.495282
-3.007157	N H	-2.804005
-1.701806	N I	-2.439695
-3.229006	N J	-2.75499
-1.728404	N K	-2.441822
-1.965764	N L	-2.853553
-3.229006	N M	-2.882808
-2.187613	N N	-2.889667
-1.040546	N O	-2.261314
-2.861029	N P	-2.882442
-3.229006	N Q	-0
-3.405097	N R	-2.855632
-1.488643	N S	-2.124683
-1.07165	N T	-1.458445
-2.450855	N U	-2.844451
-2.274763	N V	-1.506577
-4.217576	N W	-2.916268
-2.927976	N X	-2.974659
-1.602323	N Y	-1.927462
-2.239292	O </s>
-0.842375	O <space>	-0.7775853
-2.69159	O A	-2.8786
-2.279409	O B	-2.821562
-2.147522	O C	-2.596086
-1.878676	O D	-2.452047
-2.279409	O E	-2.764245
-1.146489	O F	-2.55731
-2.59468	O G	-2.627968
-2.071801	O H	-2.955665
-2.168711	O I	-2.735906
-2.098673	O K	-2.407646
-1.574871	O L	-2.558504
-1.329862	O M	-2.25535
-0.842375	O N	-1.597176
-1.537775	O O	-2.538857
-1.737347	O P	-2.500068
-1.022583	O R	-1.501322
-1.600509	O S	-2.772611
-1.247024	O T	-1.971819
-0.6676518	O U	-2.019872
-1.957857	O V	-1.862111
-1.315926	O W	-2.516764
-3.168711	O X	-2.928912
-2.469741	O Y	-2.50625
-2.360649	P </s>
-1.43637	P <space>	-2.400478
-1.042586	P A	-2.410831
-0.653079	P E	-1.962544
-1.697891	P H	-2.619691
-1.479836	P I	-2.675835
-0.9197401	P L	-2.694424
-3.571068	P M	-2.858746
-0.858222	P O	-2.626726
-1.151134	P P	-2.478387
-0.749989	P R	-2.763786
-1.883528	P S	-2.49072
-1.426151	P T	-2.683528
-1.582498	P U	-2.671291
-2.156529	P Y	-2.592589
-0.0004345118	Q U	-2.968999
-1.605571	R </s>
-0.6335469	R <space>	-9.898335e-05
-1.205247	R A	-2.021183
-2.7979	R B	-2.893127
-2.438878	R C	-2.78593
-1.43081	R D	-1.935253
-0.66254	R E	-1.417636
-1.804149	R F	-2.774932
-2.137848	R G	-2.784588
-3.040938	R H	-2.804028
-1.12845	R I	-2.298617
-2.28127	R K	-2.310139
-1.823454	R L	-2.666454
-1.857668	R M	-2.152014
-1.407469	R N	-2.674498
-1.185116	R O	-2.260688
-2.864847	R P	-2.750703
-3.341968	R Q	-0
-1.597675	R R	-2.709255
-1.455477	R S	-2.309799
-1.318715	R T	-2.18135
-2.040938	R U	-2.585087
-2.49687	R V	-0.7623316
-3.040938	R W	-2.928235
-1.226357	R Y	-2.525144
-1.354138	S </s>
-0.4411616	S <space>	-0.0001356179
-1.474529	S A	-2.278161
-2.787794	S B	-2.946307
-2.155771	S C	-2.407029
-3.030832	S D	-2.987262
-0.9382866	S E	-1.472916
-2.678649	S F	-2.827692
-3.030832	S G	-2.964501
-1.377619	S H	-1.722973
-1.231491	S I	-2.342919
-2.201528	S K	-2.528694
-2.234952	S L	-2.694451
-1.951651	S M	-2.530246
-2.271164	S N	-2.789165
-1.265536	S O	-2.368821
-1.693373	S P	-2.294834
-2.854741	S Q	-0
-3.331862	S R	-2.873579
-1.280709	S S	-2.446347
-0.8964953	S T	-2.467927
-1.389854	S U	-2.523039
-3.331862	S V	-2.163655
-2.428772	S W	-2.827604
-2.854741	S Y	-2.549303
-1.496485	T </s>
-0.5113529	T <space>	4.702463e-06
-1.476092	T A	-2.081183
-3.115579	T C	-2.937356
-1.071824	T E	-1.988848
-2.700606	T F	-2.85729
-0.5762517	T H	-1.509105
-1.196501	T I	-2.223499
-1.773156	T L	-2.811533
-2.814549	T M	-2.687737
-3.513519	T N	-2.808155
-0.9891227	T O	-2.322681
-1.647231	T R	-2.709205
-1.911459	T S	-2.562808
-1.677828	T T	-2.821099
-1.836825	T U	-2.764114
-2.434338	T W	-2.739943
-1.855507	T Y	-2.591717
-1.760985	U </s>
-0.7402362	U <space>	-0.74038
-1.662231	U A	-2.768494
-1.734113	U B	-2.925311
-1.459955	U C	-2.505378
-2.154329	U D	-2.471889
-1.820299	U E	-2.599841
-2.177811	U F	-2.981419
-1.519269	U G	-2.899486
-3.132053	U H	-2.857028
-1.503664	U I	-2.639744
-1.026543	U L	-1.86424
-1.955962	U M	-2.724061
-0.9238806	U N	-1.840163
-2.955962	U O	-2.894894
-1.535456	U P	-2.243963
-0.8077707	U R	-1.995878
-0.9691901	U S	-1.951845
-0.9417214	U T	-2.151328
-3.132053	U X	-2.993802
-2.955962	U Y	-2.657638
-1.390642	V A	-2.513094
-0.06842287	V E	-2.145045
-1.136791	V I	-2.472616
-1.579698	V O	-2.772993
-2.320061	V U	-2.957094
-1.716716	W </s>
-0.9173757	W <space>	-1.320395
-0.8172607	W A	-2.461581
-2.892807	W D	-2.921616
-0.7560869	W E	-2.378526
-3.705286	W F	-2.980796
-0.7405191	W H	-2.190588
-0.855381	W I	-2.566992
-2.892807	W L	-2.93184
-1.285352	W N	-2.855323
-0.8675016	W O	-2.473387
-2.017746	W R	-2.808032
-2.017746	W S	-2.758445
-1.070472	X </s>
-0.9735624	X <space>	-2.545022
-1.149654	X A	-2.963338
-2.661103	X B	-2.953361
-0.8709001	X C	-2.847523
-1.672532	X E	-2.946216
-2.661103	X H	-2.857028
-1.246564	X I	-2.886535
-1.672532	X O	-2.902876
-0.6311397	X P	-2.498019
-2.661103	X Q	-0
-0.658292	X T	-2.766925
-1.848624	X U	-2.926508
-1.848624	X Y	-2.592589
-1.199091	Y </s>
-0.2632918	Y <space>	-0.0001181116
-3.088393	Y A	-2.894744
-2.486333	Y B	-2.953361
-1.497328	Y E	-2.669233
-3.088393	Y F	-2.980796
-1.958059	Y I	-2.791543
-3.088393	Y L	-2.93184
-2.912302	Y M	-2.838758
-3.088393	Y N	-2.991284
-0.5357251	Y O	-2.806975
-3.900872	Y P	-2.935202
-1.44494	Y S	-2.460984
-1.991483	Y T	-2.866106
-2.690453	Y W	-2.912885
-0.1765258	Z E	-2.792907
-0.9890046	Z I	-2.890784

\3-grams:
-0.6994044	<s> A <space>	-1.329036
-1.720594	<s> A B	-0.1737992
-2.021624	<s> A F	-2.537716
-1.118534	<s> A H	-0
-0.9424425	<s> A L	-0.8358534
-1.720594	<s> A M	-0.1269925
-0.3983744	<s> A N	-1.991514
-2.021624	<s> A P	-2.602711
-1.544502	<s> A R	-1.188685
-1.118534	<s> A S	-2.569845
-1.419564	<s> A T	-0.2907261
-2.021624	<s> A U	-2.770337
-1.949825	<s> B A	-2.981134
-0.8358813	<s> B E	-2.887184
-1.648795	<s> B O	-0.3482483
-1.472703	<s> B R	-2.503106
-0.1237497	<s> B U	-1.390748
-1.472703	<s> B Y	-0.3277766
-0.8020668	<s> C A	-0.4194043
-0.3760981	<s> C E	-1.148238
-0.881248	<s> C H	-0.6629179
-0.5388254	<s> C O	0.701979
-0.7486226	<s> D E	-0.1097179
-0.5445026	<s> D I	-2.782928
-0.3336493	<s> D O	-2.644181
-1.146563	<s> D R	-0.3100773
-1.176526	<s> E A	-2.955586
-1.176526	<s> E I	-2.903199
-0.4775558	<s> E R	-0.1711869
-1.176526	<s> E S	-2.986346
-0.3983745	<s> E V	-1.789197
-1.176526	<s> E X	-2.955692
-0.9781581	<s> F E	-0.3788703
-1.279188	<s> F I	-2.846474
-0.3249456	<s> F O	-2.052776
-0.4340901	<s> F R	-2.663031
-1.342857	<s> G A	-2.818602
-1.342857	<s> G I	-2.830457
-0.564706	<s> G O	-0.4056195
-0.1967292	<s> G W	-0
-1.140314	<s> H A	-0.5811147
-0.3341336	<s> H E	-2.145644
-1.362162	<s> H I	-1.192029
-0.3768857	<s> H O	-1.394263
-0.1695769	<s> I <space>	0.1701344
-2.695916	<s> I D	-2.986138
-1.394886	<s> I F	-2.63788
-2.695916	<s> I G	-2.970068
-2.695916	<s> I L	-2.730502
-1.151848	<s> I N	-2.838198
-1.792826	<s> I S	-2.571022
-0.7227883	<s> I T	-2.763999
-0.1253732	<s> J A	0.2424679
-0.6024945	<s> J U	-2.099939
-0.0004345118	<s> K I	-1.859481
-0.4264032	<s> L A	-0.3949272
-0.6024945	<s> L E	-0.7192427
-0.7274332	<s> L I	-2.830317
-0.7274332	<s> L O	-2.869799
-2.000434	<s> M <space>	-2.973698
-0.9212532	<s> M A	-1.635837
-1.398375	<s> M E	-0.5869748
-0.8864912	<s> M I	-2.639583
-1.097345	<s> M O	-0.2887374
-0.6782152	<s> M R	-1.807725
-2.000434	<s> M U	-2.817702
-0.3983745	<s> M Y	-1.989101
-0.8455326	<s> N E	-0.1717855
-0.06738132	<s> N O	-1.951597
-0.7498141	<s> O F	-2.012987
-0.2616975	<s> O H	-2.302722
-1.863757	<s> O L	-2.879786
-0.6876662	<s> O N	-0.2690172
-1.863757	<s> O R	-2.801068
-1.386636	<s> O U	-0.4413855
-0.9298534	<s> P A	-0.04519163
-0.4527322	<s> P E	-0.3241288
-1.230883	<s> P O	-2.950943
-0.3277934	<s> P R	-2.773438
-0.0004345118	<s> Q U	-2.511549
-0.2222833	<s> R E	-0.5031078
-0.3983745	<s> R I	-2.871198
-1.431798	<s> S C	-2.903199
-0.3904056	<s> S H	-2.778429
-1.431798	<s> S I	-2.952758
-0.4775558	<s> S O	-1.42877
-1.431798	<s> S P	-2.98991
-1.130768	<s> S T	-2.947595
-1.130768	<s> S U	-2.825352
-2.027784	<s> T E	-0.3560774
-0.04101232	<s> T H	-1.34279
-2.328814	<s> T I	-2.949032
-1.152723	<s> T O	-2.252123
-2.328814	<s> T W	-2.734099
-0.08758469	<s> U N	-2.703388
-0.7407972	<s> U P	-0.3525999
-0.0004345118	<s> V E	-1.140755
-1.591499	<s> W A	-0.5229754
-0.4154079	<s> W E	-1.49116
-0.2959322	<s> W H	0.6489299
-1.591499	<s> W I	0.2846574
-1.239317	<s> W O	0.1925383
-0.5490187	<s> Y E	-2.555838
-0.1447691	<s> Y O	-0.5796123
-0.7171532	<space> A <space>	-0.6006655
-1.261221	<space> A B	-1.794347
-1.756071	<space> A C	-1.396099
-1.670157	<space> A D	-0.7144744
-1.490369	<space> A F	0.4727328
-1.798823	<space> A G	-0.1157809
-2.7841	<space> A I	-2.866245
-0.9013857	<space> A L	-1.099574
-1.200523	<space> A M	-1.742603
-0.7097711	<space> A N	-0.9438961
-1.939002	<space> A P	-0.984648
-1.049034	<space> A R	-1.686376
-1.200523	<space> A S	-1.533452
-1.124501	<space> A T	-1.664228
-1.455041	<space> A U	-0.1730861
-3.261221	<space> A V	-1.846099
-2.261221	<space> A W	-2.719573
-2.86613	<space> B </s>
-2.5651	<space> B <space>	-0.09832384
-1.033622	<space> B A	0.1578666
-0.3397913	<space> B E	-0.9961482
-2.16716	<space> B I	-1.396981
-1.86613	<space> B L	-0.1566736
-1.222678	<space> B O	-0.02500101
-0.8092257	<space> B R	5.681538e-05
-0.7762254	<space> B U	-0.7876132
-1.374769	<space> B Y	-1.995377
-0.541094	<space> C A	0.6089094
-0.9634764	<space> C E	-1.513425
-0.7873851	<space> C H	-1.150814
-1.730347	<space> C I	-1.895916
-1.276088	<space> C L	5.256544e-05
-0.4921074	<space> C O	0.74224
-1.84429	<space> C R	-0.1454063
-1.54326	<space> C U	-0.107897
-2.54326	<space> C Y	-0.2741258
-2.158042	<space> D <space>	-1.431061
-1.169038	<space> D A	0.03002839
-0.5782588	<space> D E	-1.048861
-0.7108844	<space> D I	-0.02157633
-0.427664	<space> D O	-0.9121019
-1.216034	<space> D R	0.6460152
-1.529653	<space> D U	-0.8465546
-2.760102	<space> D Y	-2.993846
-1.056916	<space> E A	-1.249098
-2.136097	<space> E C	-0.5281721
-1.914248	<space> E D	-0.2161157
-1.914248	<space> E F	-0.140304
-2.613218	<space> E G	-2.966611
-1.409098	<space> E I	-2.778427
-1.290999	<space> E L	-0.6554457
-2.011158	<space> E M	-2.900715
-0.7155913	<space> E N	-1.547133
-2.613218	<space> E P	-2.986226
-2.136097	<space> E Q	1.6676
-0.7211237	<space> E R	-1.926708
-1.658976	<space> E S	-0.4465429
-2.613218	<space> E T	-2.97343
-0.7871435	<space> E V	-0.6013883
-0.7101284	<space> E X	-0.7327634
-2.613218	<space> E Y	-2.990866
-0.6896447	<space> F A	-0.7685907
-1.013182	<space> F E	-0.8211928
-0.9144278	<space> F I	-0.286351
-1.606099	<space> F L	-0.6144586
-0.4019787	<space> F O	1.506443
-0.8859394	<space> F R	1.134765
-1.606099	<space> F U	0.3167685
-1.584483	<space> G A	-2.80158
-0.815475	<space> G E	-2.745421
-2.010452	<space> G H	-1.323265
-0.8643235	<space> G I	-2.423957
-1.373629	<space> G L	-2.714098
-0.4919376	<space> G O	1.520667
-0.9077892	<space> G R	-0.9098993
-1.208819	<space> G U	-1.008054
-0.9077892	<space> G W	-0
-0.2726381	<space> H A	-0.6143283
-0.6379668	<space> H E	-1.468036
-0.925353	<space> H I	-2.758024
-1.014498	<space> H O	-0.9526716
-1.736033	<space> H U	3.785272e-06
-2.912125	<space> H Y	-2.989016
-3.20019	<space> I </s>
-0.5135534	<space> I <space>	0.05220522
-2.054062	<space> I D	-2.738469
-1.444315	<space> I F	-2.63788
-2.89916	<space> I G	-0.3689875
-2.89916	<space> I L	-0.1294219
-1.620406	<space> I M	-1.456448
-0.6069036	<space> I N	-1.89345
-2.50122	<space> I R	-0.2084786
-0.5905953	<space> I S	-2.555931
-0.9449172	<space> I T	-2.710778
-0.3074549	<space> J A	-1.245899e-05
-1.863757	<space> J E	-2.970068
-0.7176294	<space> J O	2.059743
-0.5213348	<space> J U	-1.629652
-1.11065	<space> K E	-2.971247
-0.5877712	<space> K I	0.7444502
-0.1784018	<space> K N	-1.797675e-06
-0.6531492	<space> L A	-0.7089537
-0.884046	<space> L E	-1.073236
-0.4495892	<space> L I	-0.8191861
-1.525978	<space> L L	-2.628031
-0.6105372	<space> L O	-0.9172313
-1.794823	<space> L U	-0.7564254
-1.87134	<space> M <space>	-0.6055048
-0.6691631	<space> M A	-0.3810817
-0.6265328	<space> M E	-0.5876368
-0.9921619	<space> M I	-2.095265
-0.8775888	<space> M O	-0.4976526
-1.25404	<space> M R	1.131574
-1.05368	<space> M U	-1.482621
-0.8052804	<space> M Y	-0.7652818
-2.68077	<space> N <space>	-2.988301
-0.7886753	<space> N A	-2.386648
-2.68077	<space> N D	-2.626056
-0.68077	<space> N E	-0.8986583
-1.402016	<space> N I	-2.853207
-0.2414372	<space> N O	-0.6880938
-1.9818	<space> N U	-0.6583483
-2.932401	<space> O <space>	-2.979574
-1.786273	<space> O B	-0.3888202
-1.932401	<space> O C	-2.868267
-0.3325175	<space> O F	-1.300684
-1.677128	<space> O L	-2.879786
-2.631371	<space> O M	-2.977404
-0.5650448	<space> O N	-2.407409
-1.853219	<space> O P	-0.6591311
-1.233431	<space> O R	-2.166061
-2.932401	<space> O S	-2.863323
-1.631371	<space> O T	-2.806911
-1.260303	<space> O U	-2.866899
-1.756309	<space> O V	-1.501584
-1.413887	<space> O W	-2.863379
-2.932401	<space> O X	-2.875206
-0.8588149	<space> P A	-0.2084459
-0.7199404	<space> P E	-2.380164
-1.743421	<space> P H	-0.0105494
-1.743421	<space> P I	-0.1840845
-0.8651551	<space> P L	-1.906533
-0.891484	<space> P O	-0.2277622
-0.5045393	<space> P R	0.0001097588
-1.250506	<space> P U	2.149042
-0.0004345118	<space> Q U	0.2881652
-0.9735624	<space> R A	-0.8910612
-0.1954111	<space> R E	-0.64754
-1.01932	<space> R I	-1.934018
-0.8596191	<space> R O	-1.484548
-1.672532	<space> R U	-0.6808098
-2.694161	<space> S </s>
-1.092101	<space> S <space>	0.7695618
-0.9865913	<space> S A	-0.1771686
-1.881248	<space> S C	0.142056
-0.7883657	<space> S E	-1.064912
-0.9270055	<space> S H	-1.351011
-1.12596	<space> S I	-0.3528554
-2.150093	<space> S L	-2.806424
-1.791071	<space> S M	-1.157024
-2.694161	<space> S N	-0.3594526
-0.7546423	<space> S O	0.300646
-1.323094	<space> S P	-0.02562636
-2.393131	<space> S Q	2.262094
-1.169117	<space> S T	-2.723287
-0.9577649	<space> S U	-0.730672
-1.995191	<space> S W	-1.802346
-2.51807	<space> S Y	-0.2738713
-2.62451	<space> T </s>
-1.11936	<space> T <space>	-0.05057754
-1.607477	<space> T A	-0.7471515
-1.567605	<space> T E	-1.232847
-0.2754272	<space> T H	-0.8542935
-1.633284	<space> T I	-1.609266
-0.5555827	<space> T O	-0.303727
-1.62451	<space> T R	2.080682
-2.282088	<space> T U	-0.3737793
-2.093031	<space> T W	1.957248
-0.3112244	<space> U N	0.6880067
-0.6536471	<space> U P	-0.5383175
-0.5744658	<space> U S	-2.735116
-1.653647	<space> U T	-0.6654179
-1.282441	<space> V A	-0.3416502
-0.1275394	<space> V E	-0.845479
-0.8722668	<space> V I	-0.2042171
-1.428569	<space> V O	-0.6381759
-1.525479	<space> V U	2.262094
-2.639423	<space> W <space>	-2.976405
-0.7309376	<space> W A	-0.9131027
-0.8990599	<space> W E	-0.7349771
-0.6594192	<space> W H	-1.997151e-05
-0.6415995	<space> W I	0.9372336
-0.6571514	<space> W O	-1.722951
-1.764361	<space> W R	-0
-2.807292	<space> Y A	-2.699404
-1.302142	<space> Y E	0.256609
-0.02338895	<space> Y O	-0.5796123
-1.770234	A <space> A	-0.1159028
-1.096818	A <space> B	-0.3705092
-1.200358	A <space> C	0.1898987
-1.314302	A <space> D	0.487195
-1.314302	A <space> F	0.5306533
-1.200358	A <space> G	-0.3760492
-1.336578	A <space> H	1.860678
-1.53615	A <space> I	-1.093776
-1.152934	A <space> L	0.5284954
-0.8749689	A <space> M	-0.6564309
-1.916362	A <space> N	-0.3144111
-1.168174	A <space> P	-0.5062896
-2.615332	A <space> Q	-0
-1.501388	A <space> R	0.446675
-0.9251356	A <space> S	0.7093676
-1.360059	A <space> T	-0.408641
-2.314302	A <space> U	-2.689653
-1.336578	A <space> V	-2.40565
-1.293112	A <space> W	0.9689152
-1.661089	A <space> Y	0.8007841
-1.911592	A B A	-2.913448
-1.735501	A B I	-0.2475966
-0.4644341	A B L	-1.782866
-0.3930781	A B O	-2.550168
-2.212622	A B R	-2.702751
-0.7812582	A B S	-0.07523695
-2.212622	A B U	-2.980557
-1.367524	A B Y	1.419804
-1.141361	A C C	0.1336911
-0.9052723	A C E	-0.8979985
-1.095604	A C H	-0.4677465
-1.919513	A C I	-2.656177
-0.4472439	A C K	-0.5782328
-2.396634	A C Q	-0
-1.697664	A C R	-0.9017438
-0.5045393	A C T	0.2152885
-1.794574	A C Y	-0.8534782
-1.491796	A D </s>
-0.3736969	A D <space>	0.3642585
-1.315705	A D A	-0.04348559
-1.695916	A D D	-0.03154254
-1.315705	A D E	-1.106126
-2.093856	A D F	0.07733377
-1.616735	A D I	-0.6137098
-2.394886	A D J	-0
-1.792826	A D L	0.2892892
-1.218795	A D M	-0
-2.093856	A D N	0.2857893
-1.695916	A D O	-0.7183782
-2.093856	A D S	0.07733377
-2.394886	A D U	-2.981535
-1.353493	A D V	1.826855
-0.6390113	A D Y	-1.178093
-0.0004345118	A E T	-2.966525
-1.785764	A F E	-2.930318
-1.086794	A F F	-0.6054966
-0.609673	A F R	-2.866817
-0.1837043	A F T	-2.236177
-1.39137	A G </s>
-1.048947	A G <space>	-0.6886701
-1.048947	A G A	-1.108054
-0.1927126	A G E	-1.907327
-1.312188	A G I	-0.7290536
-2.09034	A G L	-2.816584
-1.48828	A G N	-0.5273238
-1.39137	A G O	-0.5920047
-2.09034	A G R	-2.967242
-0.0004345118	A H <space>	-0.2330315
-0.636273	A I D	-1.335568
-1.322654	A I L	-0.4888203
-1.690631	A I M	-0.4506691
-0.3968999	A I N	-0.7881929
-0.705354	A I R	-1.29523
-2.167752	A I S	-2.950794
-1.021624	A I T	-0.3914877
-1.677128	A K </s>
-0.5467943	A K <space>	-0.07568112
-0.2222833	A K E	-0.693482
-1.075068	A K I	-1.859481
-1.978158	A K N	-2.80618
-1.838496	A L </s>
-0.9155111	A L <space>	0.02124136
-2.741586	A L A	-2.995945
-2.139526	A L B	2.262094
-2.741586	A L C	-2.699404
-2.741586	A L D	-2.33646
-2.264465	A L E	-1.124321
-1.700193	A L F	-2.292094
-1.069488	A L G	-2.115648
-1.326613	A L I	-1.227047
-1.343646	A L K	1.583312
-0.343646	A L L	0.4123364
-1.787343	A L M	-0.05223127
-2.042616	A L O	-1.439048
-1.741586	A L R	-0
-1.565495	A L S	2.426095
-1.486313	A L T	-2.639935
-1.963435	A L U	-0.4401748
-1.098133	A L W	-0
-1.591499	A M </s>
-0.3322239	A M <space>	1.08772
-2.06862	A M A	-2.944114
-1.892529	A M B	-1.27447
-0.4888369	A M E	-2.581177
-1.328258	A M I	-0.9220788
-1.328258	A M M	-0.3882182
-1.892529	A M O	-0.4582775
-1.524552	A M P	-0.5653443
-1.591499	A M U	-2.716077
-1.748622	A N </s>
-0.5853866	A N <space>	0.2416614
-1.952742	A N A	-0.2391852
-1.384541	A N C	-1.84774
-0.4903445	A N D	-0.1447235
-1.838799	A N E	-0.9938838
-1.475621	A N G	-1.345019
-2.174591	A N I	-0.4934075
-1.591015	A N K	0.5018328
-2.952742	A N L	-1.282479
-1.651712	A N N	2.176884
-1.952742	A N O	-0.09571214
-1.873561	A N S	-0.2708415
-1.133198	A N T	-0.004693839
-2.350682	A N U	-0.5967437
-2.174591	A N X	-0
-0.8771955	A N Y	1.41645
-0.0004345118	A O R	-0.7074199
-1.602494	A P </s>
-1.426403	A P A	-0.544237
-1.058427	A P E	-0.4123945
-1.204554	A P H	-0.4794349
-1.903524	A P I	-2.925448
-1.602494	A P O	-0.3934278
-0.2222833	A P P	-1.124922
-1.204554	A P S	-0.5037253
-1.058427	A P T	-0.3282983
-2.021033	A R </s>
-0.8054328	A R <space>	0.5205203
-1.610858	A R A	-0.5625688
-2.389009	A R B	-0.2070692
-2.565101	A R C	-2.274868
-0.8408248	A R D	-0.2343304
-0.5501603	A R E	-1.428275
-2.565101	A R F	-0.3160369
-1.690039	A R G	-0.9768874
-1.543911	A R I	-0.1898323
-1.720003	A R K	-1.086731
-1.389009	A R L	-2.672298
-1.866131	A R M	-0.8000104
-2.167161	A R N	-0.3554441
-2.565101	A R Q	2.60108
-1.033622	A R R	-0.6053512
-1.690039	A R S	-2.766989
-1.141855	A R T	-1.603984
-2.565101	A R V	-0.03152169
-1.275066	A R Y	-1.985408
-1.870643	A S </s>
-0.245674	A S <space>	1.399985
-1.534851	A S A	-2.924505
-2.347765	A S C	-0.3021183
-1.117316	A S E	-2.705485
-1.870643	A S H	-2.962251
-1.607402	A S I	-0.06151358
-1.217431	A S K	2.149435
-2.648795	A S L	-2.982289
-2.347765	A S N	0.4828012
-1.803697	A S O	-2.95076
-2.648795	A S P	-2.579705
-1.444675	A S S	-0.01146007
-1.080593	A S T	-0.9279986
-1.217431	A S U	-2.748506
-2.347765	A S Y	-0.2230456
-1.594526	A T </s>
-0.1918735	A T <space>	-0.004315766
-2.459827	A T C	-0.6351634
-1.039321	A T E	-0.9981906
-2.936948	A T F	-2.886187
-1.380646	A T H	-0.7707009
-0.9501766	A T I	-0.8915941
-2.936948	A T L	-2.729835
-2.459827	A T O	-1.313851
-2.635918	A T R	-2.87025
-2.459827	A T S	-1.315817
-1.39288	A T T	-2.554234
-1.521975	A T U	-2.65627
-0.4495271	A U G	-1.935918
-1.653647	A U L	-0.3762183
-0.3864754	A U N	-2.897454
-0.8754958	A U S	-1.41746
-1.109579	A U T	-0.5551637
-1.938287	A V A	-1.292324
-0.03159252	A V E	-0.06203218
-1.415408	A V I	-2.613234
-1.716438	A V O	-0.05705808
-1.322654	A W </s>
-0.5445026	A W <space>	-0.4252884
-0.3684113	A W A	-0.1792406
-1.322654	A W F	-0
-0.7205939	A W N	0.08890778
-0.3014645	A X </s>
-0.347222	A X <space>	-1.2184
-1.301464	A X B	-0
-1.092749	A Y </s>
-0.2012407	A Y <space>	0.113733
-2.371502	A Y E	-2.982984
-1.526404	A Y I	-2.523746
-0.5933512	A Y S	-2.471487
-0.0004345118	A Z I	-0
-0.6024945	B <space> E	-2.998941
-0.6024945	B <space> O	-2.728328
-0.3014645	B <space> T	-0.07068249
-0.7182899	B A B	-2.774853
-0.6513431	B A C	-0.8521785
-0.7974711	B A D	-0.9901719
-0.7694424	B A G	-0.6662861
-0.8596191	B A N	-0.9301219
-1.371502	B A P	-0.6981804
-1.973562	B A R	-2.957822
-1.371502	B A S	-0.3601947
-1.973562	B A T	-2.9584
-1.973562	B A Y	-2.872119
-0.0004345118	B B S	-2.985774
-1.791657	B E </s>
-0.3966222	B E <space>	0.2750723
-1.615566	B E A	-0.194887
-1.393717	B E C	-1.249277
-2.268778	B E D	-2.22896
-0.756895	B E E	-2.834559
-1.42368	B E F	-2.885558
-1.528416	B E G	-0.8495802
-1.72471	B E H	-2.561427
-1.314536	B E I	-2.845284
-1.339359	B E L	-1.727627
-2.569808	B E N	-2.868404
-1.291055	B E R	-0.981216
-1.455865	B E S	-1.085799
-1.227386	B E T	-2.629728
-2.569808	B E V	-1.789197
-2.569808	B E W	-2.994016
-2.569808	B E Y	-2.990866
-0.7537622	B I D	-2.696651
-1.230883	B I E	-2.900409
-0.3277934	B I L	-2.9684
-0.7537622	B I R	-1.292013
-1.230883	B I S	-2.981404
-1.230883	B I T	-2.971323
-0.0004345118	B J E	-1.829947
-2.127539	B L A	-2.950915
-0.1544115	B L E	-1.355415
-1.048358	B L I	-1.531541
-1.525479	B L O	-0.4871323
-1.650418	B L U	-0.4465863
-0.8265094	B L Y	-0.7270139
-1.104238	B O D	-2.940478
-2.104238	B O H	-2.991235
-2.104238	B O L	-2.99163
-1.627117	B O O	-1.239386
-1.201148	B O R	-0.6391612
-0.9581102	B O T	-1.758845
-0.2409154	B O U	-1.480561
-2.104238	B O V	-1.501584
-2.104238	B O W	-2.96017
-1.803208	B O X	-2.699393
-0.990295	B O Y	-0.7893524
-0.5312406	B R A	-1.266007
-1.031843	B R E	-2.864189
-1.031843	B R I	-0.444395
-0.3048442	B R O	-2.318163
-1.633903	B R U	-0.3876144
-1.491796	B S <space>	-2.976497
-0.6466982	B S E	-0.5667098
-0.4126149	B S O	-2.965119
-1.491796	B S T	-2.970352
-0.4917962	B S U	-2.836342
-0.250312	B T <space>	-0.6895211
-1.204554	B T A	-2.935771
-0.9035245	B T E	-0.3482136
-0.6024945	B T S	-0.0406696
-1.922987	B U L	-1.29139
-0.6758325	B U N	-2.914138
-0.6519204	B U R	-2.92368
-1.358716	B U S	-2.732374
-0.3031983	B U T	-2.258792
-1.922987	B U Y	1.6676
-0.0004345118	B V I	-0.7008028
-1.105945	B Y </s>
-0.04524685	B Y <space>	-0.6115775
-1.708005	B Y E	-2.994402
-0.8455326	C <space> A	-2.765626
-1.544503	C <space> B	-2.973181
-1.243473	C <space> D	-2.775909
-1.243473	C <space> F	-2.675463
-1.544503	C <space> G	-2.936176
-0.9424426	C <space> I	0.02335863
-1.243473	C <space> L	-2.711161
-1.243473	C <space> N	-2.91744
-0.9424426	C <space> O	-1.132343
-1.067381	C <space> P	-0.270376
-1.544503	C <space> S	-2.966224
-1.243473	C <space> T	-2.841785
-1.067381	C <space> W	-0.3897917
-1.067381	C <space> Y	-0.05198398
-2.405268	C A B	-2.817423
-1.56017	C A K	-2.602711
-0.6418404	C A L	-0.9110088
-2.104238	C A M	-0.2285699
-0.5187776	C A N	-1.529066
-1.928147	C A P	-2.93581
-0.6493935	C A R	-0.8846584
-1.025057	C A S	-0.8133226
-1.229177	C A T	-0.8648413
-1.451026	C A U	-2.70892
-2.405268	C A Y	-2.56919
-0.8199785	C C A	-0.1801263
-0.6158585	C C E	-0.6470486
-1.518948	C C I	-2.973896
-0.6158585	C C O	0.1472651
-0.4775558	C C U	-1.615247
-1.007168	C E </s>
-0.4630998	C E <space>	0.04185396
-2.035196	C E A	-0.4588544
-0.7199261	C E C	-2.837949
-1.308198	C E D	-2.240641
-2.512318	C E E	-2.94972
-2.035196	C E F	-1.217957
-1.512318	C E I	-0.9176844
-1.734166	C E L	-1.302571
-2.512318	C E M	-2.871908
-1.66722	C E N	-0.1989712
-1.233564	C E P	-2.83747
-1.020956	C E R	-1.035083
-1.169895	C E S	-1.100311
-1.595195	C H </s>
-0.4595327	C H <space>	0.6017925
-0.6657764	C H A	-1.577144
-0.9931353	C H E	-0.2475758
-0.9583732	C H I	-1.092489
-1.528249	C H O	-2.983493
-0.817044	C H R	-1.060043
-1.771287	C H U	-0.5525008
-0.8584015	C I A	-0.9394057
-1.359004	C I D	-2.785652
-1.137155	C I E	-0.1856794
-1.182913	C I G	-2.958289
-0.3242417	C I L	-1.087322
-1.234065	C I N	-0.7513861
-1.836125	C I O	-0.3198254
-1.836125	C I P	-0.3118661
-1.660034	C I R	-1.325108
-1.438185	C I S	-0.7061727
-1.292057	C I T	-0.7493192
-2.137155	C I V	-2.953053
-0.891733	C K </s>
-0.3751033	C K <space>	0.2278776
-0.9239177	C K E	-1.168708
-1.736831	C K L	-0.2898993
-0.5464994	C K N	-2.80618
-2.037861	C K S	-0
-1.736831	C K T	2.60108
-0.9424425	C L A	-0.9133555
-0.212064	C L E	-1.180075
-1.368411	C L I	-0.5382323
-0.7315892	C L O	-0.3554186
-1.368411	C L U	-2.940731
-2.455279	C O G	-2.970068
-2.154249	C O I	0.5971891
-1.677128	C O L	-0.7383157
-0.6164303	C O M	-2.533032
-0.5521894	C O N	-1.7849
-2.154249	C O P	-0.39081
-1.610181	C O R	-0.9185724
-2.154249	C O T	-2.988138
-0.4022009	C O U	-2.726518
-2.154249	C O V	1.099496
-2.455279	C O W	-2.987647
-0.0004345118	C Q U	-2.511549
-0.8243433	C R A	-0.5960097
-0.6024945	C R E	-0.3420987
-0.4264032	C R I	-0.3580154
-0.8243433	C R O	-0.565474
-1.301464	C R U	-2.889417
-1.602494	C R Y	-2.97078
-0.3014645	C S </s>
-0.3014645	C S <space>	-2.986397
-1.191842	C T </s>
-0.549911	C T <space>	0.04571598
-1.606816	C T A	-0.6437931
-0.9633631	C T E	-2.778692
-2.305786	C T F	-2.585721
-0.7494833	C T I	-2.490117
-0.7494833	C T L	-2.729835
-1.101666	C T O	-2.981451
-1.703726	C T S	-0.2565834
-1.226605	C T U	-0.7132694
-1.03615	C U C	-2.966426
-1.881248	C U E	-2.905835
-1.881248	C U F	-0
-0.3760981	C U L	-1.502788
-0.8398554	C U M	-0.8039156
-1.182278	C U P	-0.5414013
-0.881248	C U R	-0.9213801
-0.9781581	C U S	-0.3582173
-1.881248	C U T	-2.478134
-0.6024945	C Y </s>
-0.3014645	C Y <space>	-2.854941
-0.6024945	C Y N	2.60108
-0.8954209	D <space> A	-0.2171216
-1.079226	D <space> B	-0.1295765
-1.616346	D <space> C	-0.7833394
-1.685981	D <space> D	0.2882537
-1.667498	D <space> E	-0.0145296
-1.570588	D <space> F	0.01060574
-1.871618	D <space> G	0.4895752
-1.26238	D <space> H	-1.313706
-0.9578042	D <space> I	-0.7890703
-2.269558	D <space> J	0.1984289
-2.570588	D <space> K	3.353792e-05
-1.685981	D <space> L	0.5558054
-1.269558	D <space> M	0.8919118
-1.467926	D <space> N	-0.1283533
-1.307347	D <space> O	-1.214593
-1.616346	D <space> P	0.4868921
-2.445649	D <space> Q	2.262094
-2.269558	D <space> R	0.0156592
-1.414241	D <space> S	0.4251804
-0.7488563	D <space> T	-1.441681
-2.006317	D <space> U	0.7981592
-2.269558	D <space> V	0.1004485
-1.467926	D <space> W	0.9189308
-1.284281	D <space> Y	1.168144
-1.863757	D A B	-2.817423
-1.261697	D A C	-0.7015799
-1.562727	D A I	-0.3777522
-1.863757	D A L	-2.996045
-1.863757	D A M	-2.988731
-1.386636	D A N	-0.5407488
-1.863757	D A P	-2.960275
-0.7176294	D A R	-0.4999073
-1.164787	D A U	-0.03261189
-0.2509736	D A Y	-1.544193
-0.0004345118	D B Y	-2.991409
-0.19232	D D E	-2.95658
-0.4475926	D D R	0.09376611
-1.674836	D E </s>
-1.299173	D E <space>	-0.4042271
-0.6384071	D E A	-0.5014145
-2.276896	D E B	-0.1773604
-1.276896	D E C	-0.3932728
-1.401835	D E D	-0.1274344
-1.216198	D E E	-1.377354
-1.878956	D E F	-0.7735897
-2.577926	D E G	-2.911158
-1.536534	D E L	-2.851611
-1.975866	D E M	-0.4950034
-1.021624	D E N	-0.4565836
-1.431798	D E P	-0.9550576
-0.7328283	D E R	-0.6998408
-1.162953	D E S	-0.2739118
-2.100805	D E T	-0.5268448
-1.732828	D E V	1.525614
-1.146562	D E W	-2.438862
-0.4775558	D F A	-2.972445
-0.1765258	D F U	0.2848106
-0.07961575	D G E	-0.1050965
-0.7785858	D G M	-0
-0.8880517	D I A	-1.853643
-1.440894	D I C	-0.4228596
-0.7674778	D I D	-1.190111
-1.172048	D I E	-0.2036387
-1.440894	D I F	-2.977074
-1.80887	D I G	-0.528758
-0.5957957	D I N	-1.550848
-1.683932	D I O	-1.372854
-1.80887	D I R	-1.22027
-0.6949272	D I S	-0.7687704
-1.50784	D I T	-1.313333
-1.683932	D I V	-0.3436302
-0.0004345118	D J O	-2.9457
-1.031843	D L E	-0.1257277
-0.04283832	D L Y	0.6036799
-0.0004345118	D M I	-0.2308063
-0.1005496	D N <space>	-2.858368
-0.7537622	D N E	-2.898529
-1.531913	D N I	-2.949974
-1.712242	D O </s>
-0.6391345	D O <space>	0.02697024
-1.791423	D O C	-0.168198
-1.128665	D O E	-2.11362
-1.888333	D O G	-0.6033652
-2.013272	D O I	-0.3362908
-0.7661171	D O L	-2.753822
-1.888333	D O M	-0.4114275
-0.4817928	D O N	-2.511789
-2.490393	D O O	-2.951747
-2.013272	D O P	-1.320178
-2.013272	D O R	-0.5226906
-2.490393	D O T	-2.984126
-1.314302	D O U	-2.907292
-1.314302	D O W	-2.863379
-1.732828	D R </s>
-0.7328283	D R <space>	-2.976449
-0.7785858	D R A	-0.6168038
-0.2856702	D R E	-0.3866003
-1.033858	D R I	-0.668766
-1.732828	D R O	-2.96376
-0.5914991	D S </s>
-0.1765258	D S <space>	-0.6266555
-1.114378	D S H	-1.294651
-0.2345177	D U C	0.05431921
-1.380646	D U L	-2.964554
-1.681676	D U M	-2.75366
-1.681676	D U O	-0
-1.079616	D U R	-1.365582
-0.6024945	D U T	-1.17987
-0.4397672	D V A	-0.653678
-0.1967292	D V I	-2.868017
-0.0004345118	D W I	-0.1965118
-0.7055647	D Y </s>
-0.1035048	D Y <space>	-0.07647287
-1.851693	D Y I	-2.523746
-0.9824936	E <space> A	1.140731
-1.46253	E <space> B	0.8062814
-1.232856	E <space> C	1.272436
-1.533886	E <space> D	-0.3577035
-1.513682	E <space> E	-0.7868324
-1.466939	E <space> F	-0.4856488
-1.759195	E <space> G	-0.7983389
-1.40126	E <space> H	6.202099e-05
-1.006379	E <space> I	-0.2001327
-2.011007	E <space> J	-2.314436
-2.282074	E <space> K	-1.8949
-1.625656	E <space> L	1.068158
-1.195714	E <space> M	-1.159866
-1.36826	E <space> N	1.144552
-1.170363	E <space> O	-0.07825285
-1.489682	E <space> P	0.9804097
-2.043192	E <space> Q	-0
-1.750595	E <space> R	1.891136
-1.172608	E <space> S	0.4979237
-0.9987724	E <space> T	-1.899503
-1.953015	E <space> U	-3.109907e-05
-2.043192	E <space> V	-1.123116
-1.245977	E <space> W	-1.311807
-1.445328	E <space> Y	-0.4079615
-1.90623	E A </s>
-1.50829	E A <space>	-0.5577233
-2.684382	E A B	-2.817423
-1.781292	E A C	-2.900563
-0.9768114	E A D	-0.3846651
-1.221984	E A K	1.520666
-0.9601057	E A L	-1.156732
-2.082322	E A M	0.08833479
-1.165868	E A N	-0.7124366
-2.383352	E A P	-0.3879355
-0.4968609	E A R	-0.5448601
-0.9062303	E A S	-0.5099502
-1.012284	E A T	-2.035508
-1.90623	E A U	-0.1993549
-1.538253	E A V	0.2608764
-0.2222833	E B R	-0.4085625
-0.3983745	E B T	-0.2741258
-1.61498	E C A	-0.7776491
-2.393131	E C C	-2.879565
-1.070912	E C E	-0.6491499
-2.393131	E C H	-2.894379
-0.5066408	E C I	-1.369792
-1.791071	E C K	-0.3826991
-1.91601	E C L	-0.5003021
-1.01292	E C O	-1.8067
-1.791071	E C R	-0.6131119
-0.4200036	E C T	1.622838
-1.31395	E C U	-2.638284
-0.9934697	E D </s>
-0.08303933	E D <space>	0.8298389
-2.636922	E D E	-2.982433
-2.335892	E D G	0.3770655
-1.557741	E D I	-0.4580589
-2.034862	E D L	0.2892892
-2.636922	E D N	-2.915772
-2.335892	E D R	-2.911147
-1.791824	E D U	-2.574735
-2.335892	E D Y	-1.178109
-1.946559	E E </s>
-0.7424392	E E <space>	0.119347
-0.9612825	E E D	-0.3627451
-1.309737	E E K	-0.0653713
-1.309737	E E L	-1.11479
-0.7424392	E E M	-1.379115
-0.5098667	E E N	-1.806253
-1.382288	E E P	-0.9305532
-2.12265	E E S	-2.786318
-1.21956	E E T	-0.9938629
-1.538254	E F </s>
-1.362162	E F <space>	-0.4368648
-1.237224	E F E	-1.391078
-0.7601024	E F F	-0.3203958
-1.140314	E F I	-0.0696608
-1.839284	E F L	-2.977746
-0.6351636	E F O	-2.052776
-1.839284	E F R	-2.958152
-0.885041	E F T	-0.3165719
-0.6351636	E F U	-0.1419758
-0.4775558	E G <space>	-2.936671
-0.7328283	E G A	-0.6444038
-1.130768	E G E	-2.803363
-0.8297383	E G I	-0.3223695
-1.431798	E G L	-2.816584
-0.7328283	E G R	-0.1339209
-1.431798	E G U	-2.991409
-0.1967292	E H A	-2.874753
-0.7407972	E H E	-0.3784651
-0.7407972	E H O	-0.3747268
-0.6994045	E I G	-2.413425
-0.5233133	E I N	-2.809997
-0.7785858	E I R	-2.943445
-0.6994045	E I T	-2.847512
-0.8754958	E I V	0.8745714
-0.8455326	E K </s>
-0.1465626	E K <space>	-0.4187822
-1.146563	E K E	-2.974219
-1.146563	E K S	-0
-2.078408	E L </s>
-1.276775	E L <space>	-0.3447269
-1.514136	E L A	-2.93244
-2.555529	E L C	-2.699404
-1.856559	E L D	-0.2072639
-1.652439	E L E	-0.2802647
-1.078408	E L F	4.947917e-05
-2.078408	E L G	-1.307602
-1.050379	E L I	-1.344864
-0.3941609	E L L	-0.8280997
-1.777378	E L O	-0.4252884
-2.254499	E L P	0.07733377
-1.32508	E L S	-0.7578839
-1.856559	E L T	-0.1373672
-0.6981964	E L Y	0.3542471
-0.9906746	E M </s>
-0.7987892	E M <space>	-0.8791192
-0.9449172	E M A	-0.5440437
-1.342857	E M B	-2.224
-0.5927347	E M E	-1.095777
-1.400849	E M I	-0.7890734
-1.099819	E M O	0.06181139
-1.400849	E M P	-0.6742931
-0.7835493	E M S	-2.025917
-1.419697	E N </s>
-0.4813068	E N <space>	0.5273955
-2.308999	E N A	-0.4506971
-1.238961	E N C	-1.116575
-0.8982218	E N D	-1.591364
-1.342857	E N E	-0.708457
-1.342857	E N G	-1.542079
-1.797116	E N I	-2.788392
-2.610029	E N J	0.07733377
-2.911059	E N K	-2.986078
-2.065961	E N L	-1.282479
-1.831878	E N O	-1.883234
-1.392545	E N S	-1.033112
-0.5826793	E N T	-0.2549413
-2.212089	E N Y	0.3608676
-1.243473	E O L	-0.3820143
-1.544503	E O N	-2.782849
-0.06738132	E O P	-2.847573
-1.243473	E O R	-0.3879355
-0.9035245	E P <space>	-0.008447336
-1.107644	E P A	0.1305413
-0.6604864	E P E	-0.8528061
-0.9615165	E P H	-2.784679
-1.505584	E P I	-2.835379
-1.806614	E P L	-2.980715
-1.329493	E P O	-1.050478
-1.329493	E P R	-0.05822229
-1.806614	E P S	-2.778441
-0.5055845	E P T	-0.3620402
-0.0004345118	E Q U	1.382853
-1.248552	E R </s>
-0.4455773	E R <space>	0.1193243
-1.70085	E R A	-0.3808568
-2.780031	E R C	-0.14938
-2.382091	E R D	-0.2013533
-0.7910264	E R E	-2.12092
-1.39982	E R F	-1.195843
-2.60394	E R H	-0.7316405
-1.489996	E R I	-2.0285
-2.479001	E R L	-1.247742
-1.666088	E R M	-0.318465
-0.9475221	E R N	-1.94504
-2.60394	E R O	-1.286186
-1.825788	E R R	-0.22867
-1.310209	E R S	0.1357987
-1.666088	E R T	-1.322062
-2.00188	E R V	1.896101
-3.081061	E R W	-0
-1.068224	E R Y	-2.228998
-1.111398	E S </s>
-0.5069322	E S <space>	0.1255787
-2.463581	E S A	-0.2275394
-2.764611	E S C	-2.970068
-2.764611	E S D	-0
-1.259461	E S E	-1.171424
-2.463581	E S H	-2.956949
-1.422188	E S I	-1.218767
-2.764611	E S M	-2.990866
-2.287489	E S N	-0.4506786
-2.287489	E S O	-0.3920297
-1.509338	E S P	-1.275079
-2.463581	E S Q	2.60108
-0.7393048	E S S	0.6376172
-0.571486	E S T	-0.2130326
-1.986459	E S U	-1.312099
-1.527635	E T </s>
-0.4797109	E T <space>	-0.05330518
-1.351543	E T A	-0.1802975
-2.305786	E T C	-2.302764
-1.226605	E T E	0.2432627
-0.944058	E T H	-2.526753
-1.129695	E T I	0.02851952
-2.305786	E T N	-2.699404
-2.004756	E T O	-2.990814
-2.004756	E T R	-2.911951
-1.703726	E T S	-0.0406696
-0.693002	E T T	-1.062689
-1.527635	E T U	0.0621452
-1.527635	E T W	-2.734099
-1.460688	E T Y	1.372527
-0.0004345118	E U T	-0.3654747
-2.2971	E V A	-2.987048
-0.02758682	E V E	-0.8161473
-1.99607	E V I	-0.3770404
-1.342857	E V O	-0.1506958
-1.018659	E W </s>
-0.2009996	E W <space>	0.7525261
-1.562727	E W A	-0.3548277
-0.9095149	E W H	-2.62282
-1.863757	E W I	-2.811
-0.9606674	E W S	0.1723258
-1.712242	E X </s>
-2.013272	E X <space>	-2.937919
-1.013272	E X A	1.165952
-0.7345181	E X C	1.667206
-2.013272	E X E	-2.523746
-1.712242	E X I	-0.2741258
-2.013272	E X O	-2.523746
-0.4947577	E X P	-0
-2.013272	E X Q	-0
-0.52191	E X T	-0
-1.712242	E X Y	-0
-0.9827057	E Y </s>
-0.06889192	E Y <space>	-0.7909646
-1.681676	E Y E	-2.555838
-1.681676	E Y O	-2.998783
-0.939437	F <space> A	-0.6376191
-1.661472	F <space> B	-0.5056615
-1.1118	F <space> C	-1.644659
-1.924714	F <space> D	0.2848548
-1.588922	F <space> E	-1.500329
-1.799775	F <space> F	-0.1221964
-2.003895	F <space> G	-0.3349498
-1.304925	F <space> H	1.169342
-1.090081	F <space> I	-2.510427
-2.401835	F <space> K	-1.894906
-1.661472	F <space> L	-0.08566061
-1.134663	F <space> M	-1.174872
-2.100805	F <space> N	-0.7924979
-1.498745	F <space> O	-0.9173991
-1.447592	F <space> P	0.2846643
-1.748622	F <space> R	-1.141836
-1.380646	F <space> S	-0.4032516
-0.6384071	F <space> T	-0.8156441
-1.799775	F <space> U	-1.365506
-2.401835	F <space> V	-0.3363403
-1.748622	F <space> W	-0.3697884
-1.049652	F <space> Y	0.8637069
-0.5123179	F A C	-2.105475
-0.7719552	F A I	-2.904671
-1.512318	F A L	-1.169854
-1.211288	F A M	-2.97911
-1.637257	F A N	-0.5214888
-1.035197	F A R	-1.091386
-1.160135	F A S	-0.2464469
-1.211288	F A T	-2.981535
-1.813348	F A U	-0.3891698
-1.512318	F A V	-0.7294812
-0.8591054	F A X	-1.707133
-1.044638	F E </s>
-0.8290384	F E <space>	0.06141133
-1.412615	F E A	-2.833452
-1.889736	F E B	-0.001630714
-0.5675169	F E C	-2.792261
-1.076823	F E E	-2.978177
-0.9354936	F E L	-0.5429689
-1.713645	F E M	-0.5022195
-1.889736	F E N	-2.911631
-0.9120126	F E R	-1.737585
-1.491796	F E S	-1.285313
-2.190766	F E T	-2.966525
-1.345668	F E W	-2.56878
-1.007613	F F </s>
-0.671821	F F <space>	-0.3685218
-0.405553	F F E	-2.759378
-0.609673	F F I	-2.80929
-1.785764	F F L	-2.740718
-1.785764	F F O	-2.052776
-1.785764	F F S	-0
-2.017468	F I B	-2.964565
-1.239317	F I C	-0.2792557
-1.318498	F I D	-0.008839036
-1.540347	F I E	-1.192519
-1.318498	F I F	-0.664679
-1.415408	F I L	-1.160747
-0.5261063	F I N	-1.329595
-0.55507	F I R	-2.917955
-1.318498	F I T	-0.2192862
-0.8413767	F I V	-2.189469
-1.301464	F L A	-2.939468
-0.347222	F L I	-0.3973956
-0.8243433	F L O	-1.22632
-0.5233133	F L U	-2.896221
-1.301464	F L Y	-2.95752
-1.683482	F O L	-0.2004968
-1.479362	F O N	-2.975803
-1.683482	F O O	-0.6948126
-0.05203788	F O R	-1.146613
-1.428209	F O U	-1.668264
-0.5782259	F R A	-2.89076
-1.036864	F R E	-0.6346568
-0.7638625	F R I	-2.845482
-0.3488892	F R O	-2.913282
-1.638924	F R U	-0.3766662
-0.0004345118	F S </s>
-1.243472	F T </s>
-1.067381	F T <space>	-0.7809104
-0.08210453	F T E	-1.473521
-1.544502	F T Y	0.2163391
-0.100805	F U L	-2.903152
-1.322654	F U N	-0.4769938
-1.799775	F U R	-2.983231
-1.197715	F U S	-1.320914
-1.100805	F U T	-0.7946886
-0.0004345118	F Y <space>	-2.949823
-0.9846402	G <space> A	-0.6304768
-1.329136	G <space> B	-0.321812
-1.493946	G <space> C	0.04621519
-1.90892	G <space> D	-1.017329
-1.461761	G <space> E	0.6746657
-1.528708	G <space> F	-0.8471374
-1.90892	G <space> G	-0.1593632
-1.493946	G <space> H	0.5482132
-0.9357917	G <space> I	0.111208
-2.60789	G <space> J	-2.705301
-1.493946	G <space> L	0.1236277
-1.20995	G <space> M	0.0380008
-1.829738	G <space> N	0.2765273
-1.039688	G <space> O	-2.108463
-1.60789	G <space> P	-0.1128922
-2.60789	G <space> Q	-0
-1.60789	G <space> R	-2.350604
-1.377441	G <space> S	-0.1160614
-0.8597016	G <space> T	-1.613107
-1.7048	G <space> U	0.6719108
-1.90892	G <space> V	0.3711634
-1.160731	G <space> W	0.468538
-1.352617	G <space> Y	-1.719584
-0.3539935	G A G	-2.554327
-1.11991	G A I	-2.777457
-1.898061	G A L	-2.737775
-1.296002	G A N	-0.4950034
-0.4666978	G A R	-2.616349
-1.42094	G A T	-0.475653
-1.597032	G A V	0.7549808
-1.898061	G A Z	-0
-1.126728	G E </s>
-0.623278	G E <space>	-0.1434256
-2.330848	G E A	-2.999101
-0.8836901	G E D	-0.3630444
-1.853727	G E L	-0.447655
-1.154757	G E M	-2.871908
-1.126728	G E N	-2.840833
-2.330848	G E O	-2.974472
-0.6148449	G E R	-1.374091
-1.631878	G E S	-0.03106773
-0.9158749	G E T	-0.5250156
-0.2222833	G G A	-1.07857
-0.6994045	G G E	-2.989743
-0.6994045	G G L	-2.816584
-1.380646	G H </s>
-0.7274332	G H <space>	-0.5614772
-1.681676	G H A	-1.294848
-1.556737	G H B	2.262094
-1.556737	G H E	-0.2596192
-1.459827	G H L	2.776813
-0.1810734	G H T	1.249462
-1.531913	G I B	0.1035816
-1.832943	G I C	-2.892912
-1.832943	G I E	-2.900409
-0.9298534	G I N	-0.4180799
-1.832943	G I O	-2.920906
-0.4905207	G I R	-2.943445
-1.355822	G I S	-0.5224199
-1.531913	G I T	-0.3865623
-0.3857854	G I V	-1.717923
-0.3167045	G L A	-0.9429473
-0.4628326	G L E	-0.8565135
-1.161803	G L I	-0.3641938
-0.9857113	G L Y	-0.325907
-0.0004345118	G M E	-2.910638
-1.114378	G N <space>	-2.966489
-0.4154078	G N E	-0.5112617
-0.6372566	G N I	-0.5292349
-0.6372566	G N O	-1.320044
-1.114378	G N S	-2.876081
-1.219794	G O </s>
-0.6846812	G O <space>	-0.1123358
-1.462832	G O E	0.1484746
-0.9187644	G O I	-2.003891
-2.064892	G O L	-2.879786
-1.365922	G O N	-0.3517548
-0.5208244	G O O	-2.884408
-1.763862	G O R	-0.3863434
-0.7426731	G O T	-1.128931
-1.763862	G O V	1.099496
-2.064892	G O W	-2.96017
-0.4185779	G R A	-0.3617263
-0.4397672	G R E	-1.234899
-1.138737	G R I	-1.332527
-0.8377073	G R O	-0.4585378
-1.439767	G R Y	-0.3533951
-0.7328283	G S </s>
-0.1307683	G S <space>	-0.1954651
-1.431798	G S B	-2.933126
-1.431798	G S T	-2.777113
-0.1765258	G T H	-2.997727
-0.4775558	G T O	-2.991486
-0.5038847	G U A	-1.067973
-1.009035	G U E	-0.2909449
-1.105945	G U I	-0.3616344
-1.708005	G U L	-2.958991
-1.406975	G U M	-0.2230456
-0.3462769	G U S	-2.83078
-0.0004345118	G W E	-2.894807
-0.4977592	G Y </s>
-0.1667659	G Y <space>	-0.298866
-0.9704712	H <space> A	-0.5645627
-1.447592	H <space> B	0.2049363
-2.187955	H <space> C	-2.780702
-1.258536	H <space> D	-0.07206708
-1.585895	H <space> E	-1.304243
-1.643887	H <space> F	-1.202808
-1.710834	H <space> G	-0.3372349
-1.284865	H <space> H	2.028264
-0.8555167	H <space> I	0.2446294
-2.488985	H <space> J	-2.844435
-1.710834	H <space> L	0.2176567
-1.127257	H <space> M	0.1608224
-1.585895	H <space> N	1.380033
-1.312894	H <space> O	0.1869715
-1.447592	H <space> P	-0.06271606
-2.011864	H <space> R	-0.8915165
-1.447592	H <space> S	-0.5095743
-0.7987892	H <space> T	-0.9199203
-1.585895	H <space> U	0.6719108
-2.488985	H <space> V	-2.976723
-1.585895	H <space> W	-0.1136962
-1.166766	H <space> Y	1.182128
-3.000869	H A C	-2.963674
-1.194689	H A D	-1.626676
-2.301899	H A I	-0.1278583
-2.699839	H A K	-0.001630714
-1.569505	H A L	-2.607781
-2.155771	H A M	-1.190211
-1.125807	H A N	-1.435359
-1.602929	H A P	-0.9207326
-1.301899	H A R	-0.8086413
-1.081791	H A S	-1.210168
-0.3593944	H A T	-2.256603
-0.6506207	H A V	-1.501534
-0.0004345118	H B O	-0.3670826
-2.483308	H E </s>
-0.2579989	H E <space>	-0.9511264
-1.472584	H E A	-0.6635452
-1.909277	H E D	-0.09888241
-2.085368	H E I	-2.920906
-2.483308	H E L	-0.3891423
-1.63821	H E M	-2.684358
-1.33718	H E N	-0.5362998
-2.608247	H E O	-0.5355898
-0.5954096	H E R	-1.975289
-1.687428	H E S	0.3497564
-2.483308	H E T	-0.6854633
-2.24027	H E W	-2.56878
-1.505584	H E Y	-0.2881812
-0.0004345118	H F U	-2.31627
-1.435567	H I C	-2.935828
-2.188894	H I E	-0.4268417
-1.666016	H I G	-2.413425
-1.251042	H I L	-1.1168
-1.134537	H I M	-1.480468
-0.3177108	H I N	-1.85358
-1.967046	H I O	0.4797727
-2.666016	H I P	-2.958651
-1.461896	H I R	-2.831275
-0.5588056	H I S	-1.302882
-0.0004345118	H L Y	-1.993507
-0.4775558	H M <space>	-2.966866
-0.1765258	H M E	-0.3095573
-0.255707	H N </s>
-0.3526171	H N <space>	-2.899608
-0.8074988	H O <space>	-0.7723989
-2.470257	H O C	-2.945011
-2.470257	H O I	-2.977746
-1.266137	H O L	-0.8454706
-1.391075	H O M	0.312693
-2.470257	H O N	-2.998462
-1.470257	H O O	-0.4680727
-1.148037	H O P	-2.830086
-1.169227	H O R	-0.07118682
-1.391075	H O S	-2.779434
-2.470257	H O T	-2.982776
-0.4368328	H O U	-2.712165
-0.8074988	H O W	-2.642611
-1.531913	H R A	-0.3957413
-0.6288234	H R E	-2.988037
-0.2766409	H R I	-2.872968
-0.6868154	H R O	-0.8419825
-0.5445026	H S </s>
-0.1465626	H S <space>	-0.6544328
-1.023916	H T </s>
-0.1928283	H T <space>	0.2981051
-0.8642148	H T E	-0.1686986
-1.200007	H T F	-2.585721
-1.978158	H T I	-2.946675
-1.978158	H T L	-2.675095
-1.677128	H T O	-0.3904061
-1.677128	H T S	-1.802335
-1.362162	H U M	-2.985292
-0.5170643	H U N	-0.1154903
-0.4590724	H U R	-0.9031994
-0.5170643	H U S	-2.940984
-1.301464	H Y </s>
-0.1253732	H Y <space>	-0.1869323
-1.602494	H Y P	-0
-0.7573965	H Y S	-2.96404
-0.7887296	I <space> A	-1.004494
-1.660562	I <space> B	-2.515397
-1.282366	I <space> C	-0.1240497
-0.9967564	I <space> D	0.1667716
-1.961592	I <space> E	-0.1110823
-1.500861	I <space> F	-0.5022579
-2.137683	I <space> G	0.01198615
-0.7759554	I <space> H	-1.845356
-2.216864	I <space> I	-0.09985072
-1.535623	I <space> K	0.8254062
-1.438713	I <space> L	-1.231419
-1.123443	I <space> M	-1.172187
-1.593615	I <space> N	0.143384
-1.915834	I <space> O	0.4421924
-1.874442	I <space> P	-0.8124096
-1.711714	I <space> R	-2.559117
-1.130505	I <space> S	-0.7593995
-1.282366	I <space> T	-0.8685555
-2.915834	I <space> U	-2.865459
-2.012744	I <space> V	-2.40565
-1.046603	I <space> W	-0.9945134
-1.708005	I A </s>
-1.230883	I A <space>	-0.459389
-1.708005	I A B	-0.2163432
-0.9298534	I A G	-2.554327
-0.6288234	I A L	-0.9262931
-0.5038847	I A N	-0.7727903
-0.8329434	I A R	-2.874789
-2.009035	I A S	-2.962339
-1.105945	I A T	-0.3086872
-1.230883	I B A	-0.4588046
-1.708005	I B E	-2.977192
-0.9298534	I B I	-2.724179
-0.1639366	I B L	-2.176372
-1.105945	I B R	-1.241549
-1.406975	I B U	-2.661527
-1.903524	I C </s>
-0.6604864	I C <space>	2.403667
-0.7731907	I C A	-2.852999
-0.8243433	I C E	-2.664718
-0.8621318	I C H	-0.6055631
-1.301464	I C I	-0.5726242
-1.204554	I C K	-2.662061
-1.903524	I C L	0.01412358
-1.903524	I C S	-0
-1.163162	I C T	0.02764738
-0.9741056	I C U	-2.762955
-1.42368	I D </s>
-0.3629826	I D <space>	-0.05187316
-2.201832	I D A	-2.981794
-0.4094401	I D E	-0.6398942
-1.72471	I D G	-0.5564144
-1.502862	I D I	-0.6137025
-1.502862	I D L	2.273165
-1.356734	I D N	-2.248675
-2.201832	I D S	-2.871483
-1.591499	I E </s>
-1.716438	I E <space>	-0.5116061
-0.5600907	I E D	-1.860472
-1.079616	I E F	-1.007044
-2.193559	I E L	-2.996359
-0.7464011	I E N	-1.271166
-1.591499	I E R	-1.221492
-0.6884092	I E S	-1.122526
-1.348461	I E T	-2.984699
-1.892529	I E U	2.60108
-1.047431	I E V	-1.752092
-1.494589	I E W	-0.2508859
-0.2474827	I F <space>	-0.4905322
-0.5541898	I F E	-2.859092
-1.288875	I F F	-2.557842
-1.435003	I F I	-0.6876168
-1.355822	I F T	0.4303275
-1.832943	I F U	0.2848106
-2.133973	I F Y	-0
-1.038223	I G A	-0.9272476
-1.477556	I G E	-1.381581
-0.1302257	I G H	0.3679608
-1.301464	I G I	-0.7290536
-1.176526	I G N	2.070425
-2.079616	I G R	-2.791384
-2.079616	I G S	-2.983626
-0.0004345118	I H O	-2.985038
-0.008259944	I K E	-1.413819
-1.748623	I K I	-1.859481
-1.78219	I L <space>	-2.813358
-1.78219	I L A	-0.2814602
-1.105496	I L D	0.3157695
-1.539152	I L E	-0.4366948
-1.153801	I L I	-1.548199
-0.335032	I L L	-0.185178
-2.38425	I L M	-2.954291
-1.78219	I L W	2.262094
-0.5150182	I L Y	-0.7269807
-1.047859	I M </s>
-0.8000747	I M <space>	-0.7518074
-1.316704	I M A	-0.02580143
-0.50859	I M E	-0.4268966
-1.316704	I M I	-0.05217697
-1.258712	I M M	-1.859499
-2.161802	I M O	-2.902012
-0.5707379	I M P	-1.997835
-1.860772	I M S	-0.3754628
-1.903886	I N </s>
-0.6057613	I N <space>	-0.3531897
-1.849529	I N A	-1.013421
-1.511776	I N C	-1.530675
-1.199164	I N D	-0.8579477
-1.355702	I N E	-0.7339687
-1.737555	I N F	0.4172703
-0.4505679	I N G	-1.19636
-1.778948	I N I	-0.9094858
-3.079978	I N J	-2.824126
-1.241128	I N K	-0.70856
-1.824705	I N L	-1.282479
-2.125735	I N N	0.4564931
-3.079978	I N O	-2.987644
-2.602856	I N Q	1.6676
-1.500194	I N S	-0.5625369
-1.253903	I N T	-0.4803495
-2.125735	I N U	0.1738162
-1.757758	I N V	0.8751771
-3.079978	I N Y	-2.415946
-1.881248	I O D	-0.284845
-2.358369	I O L	-2.753822
-0.09591832	I O N	-1.587906
-2.057339	I O R	-0.1999876
-2.358369	I O T	-2.984126
-0.7785858	I O U	-2.970263
-1.041827	I P <space>	-2.989545
-0.7407972	I P E	-2.915761
-0.7407972	I P L	0.007890414
-1.041827	I P S	-2.937919
-0.3428572	I P T	-0.2021849
-1.079616	I R </s>
-0.9132843	I R <space>	-0.1006488
-1.778586	I R A	-1.31297
-1.778586	I R C	-0.4843908
-2.255707	I R D	-2.898516
-0.6429232	I R E	-0.5940818
-1.000434	I R F	-2.860286
-2.255707	I R I	-2.886982
-0.9132843	I R L	-1.061939
-1.410609	I R M	-0.02354721
-1.477556	I R R	-2.959041
-0.8754958	I R S	-2.56911
-1.051587	I R T	-0.8179588
-2.255707	I R Y	-2.292714
-1.892529	I S </s>
-0.2145906	I S <space>	0.6200334
-1.933922	I S A	-0.68232
-2.234952	I S C	-1.185458
-1.572194	I S E	-1.178989
-1.979679	I S F	-0
-2.331862	I S G	1.545767
-1.377619	I S H	-1.667696
-1.979679	I S I	-0.6768213
-2.234952	I S L	-0.2119619
-1.44256	I S M	-2.549952
-1.757831	I S N	-2.118279
-2.933922	I S O	-2.994378
-2.234952	I S P	-0.6566742
-2.933922	I S R	-2.699404
-1.06469	I S S	-0.7743643
-0.970134	I S T	0.7065878
-2.632892	I S U	-0.388888
-2.933922	I S Y	-2.920906
-1.302142	I T </s>
-0.3775403	I T <space>	0.3842917
-1.55202	I T A	0.09486002
-0.8882145	I T E	-0.5739479
-2.807292	I T F	-2.585721
-0.7819866	I T H	-2.610464
-1.275814	I T I	-0.2496069
-2.807292	I T L	-2.675095
-2.506262	I T O	-0.3803706
-1.7659	I T S	0.158443
-1.194509	I T T	-2.144738
-2.205232	I T U	-0.3706155
-1.216228	I T Y	-1.360937
-1.46656	I V A	-0.6688998
-0.07298522	I V E	-0.5263775
-0.9894392	I V I	-1.666375
-1.76759	I V O	-0.3575705
-0.1765258	I X <space>	-0.4262415
-0.7785858	I X E	-2.824126
-0.7785858	I X O	-2.523746
-0.0004345118	I Z E	-0
-0.01171551	J A C	-2.808162
-1.591499	J A M	-2.82965
-0.03039773	J E C	-2.792261
-1.176526	J E N	-2.999467
-0.2766409	J O H	-2.913909
-0.9298534	J O I	0.5971891
-0.9298534	J O U	-2.914832
-0.6288234	J O Y	-0.5740689
-1.380646	J U D	-2.976543
-1.380646	J U L	-2.998295
-1.380646	J U R	-2.937048
-0.05842643	J U S	-2.83078
-0.9889546	K <space> A	-0.6797299
-1.873561	K <space> B	-2.802921
-2.049652	K <space> C	-2.73969
-1.505584	K <space> D	0.09860514
-2.350682	K <space> E	-2.905835
-1.505584	K <space> F	-0.386795
-1.748622	K <space> H	0.2318204
-0.6879246	K <space> I	-0.3775221
-2.049652	K <space> J	-2.314434
-2.049652	K <space> L	-2.711161
-1.350682	K <space> M	-1.029937
-2.350682	K <space> N	-2.62988
-1.236739	K <space> O	-2.419552
-2.049652	K <space> P	-2.833163
-2.049652	K <space> Q	2.60108
-1.505584	K <space> R	-2.935427
-1.350682	K <space> S	-0.351838
-0.7072298	K <space> T	-0.9447227
-1.236739	K <space> W	1.248994
-0.9527424	K <space> Y	-1.719584
-0.0004345118	K A B	-2.817423
-0.0004345118	K B Y	0.6886538
-1.193559	K E </s>
-0.2204313	K E <space>	0.1440592
-0.9382866	K E D	-0.9266798
-1.239317	K E E	-2.981607
-2.193559	K E L	-2.959496
-1.494589	K E N	-0.04917331
-2.193559	K E P	-2.83747
-1.892529	K E R	-2.772751
-1.239317	K E S	-2.83808
-1.348461	K E T	-2.805464
-1.271501	K I L	-1.062902
-0.03261916	K I N	-2.740955
-1.748622	K I S	-2.96087
-0.6536471	K L E	-0.3597569
-0.6536471	K L I	-0.3656976
-0.255707	K L Y	0.7833058
-0.4436976	K N E	-1.529738
-0.1944991	K N O	-2.560561
-0.0004345118	K R U	-2.94207
-0.0004345118	K S <space>	-0.3377883
-0.0004345118	K T I	-0.3785877
-1.019212	L <space> A	0.1573796
-1.290953	L <space> B	0.01384933
-1.290953	L <space> C	0.04877884
-1.652681	L <space> D	0.2382562
-1.749591	L <space> E	-0.3087485
-1.874529	L <space> F	-0.3430902
-1.807583	L <space> G	0.0518916
-1.373927	L <space> H	0.223891
-0.8602891	L <space> I	0.2353437
-2.351651	L <space> J	-2.314434
-2.050621	L <space> K	-0.2211724
-1.652681	L <space> L	0.495295
-1.254741	L <space> M	-0.3892478
-1.476589	L <space> N	0.5747761
-1.351651	L <space> O	0.2149672
-1.448561	L <space> P	0.1755959
-2.351651	L <space> Q	2.60108
-1.448561	L <space> R	0.1297443
-1.254741	L <space> S	0.003541862
-0.920287	L <space> T	-0.8040629
-2.175559	L <space> U	-1.04133
-2.050621	L <space> V	0.4680081
-1.254741	L <space> W	0.9402232
-1.221317	L <space> Y	1.076162
-2.332873	L A B	-2.77488
-0.971145	L A C	-2.714816
-0.6085971	L A D	-2.439224
-2.332873	L A E	-0
-2.332873	L A G	-2.554327
-1.29148	L A I	-0.6076075
-2.031843	L A M	-2.688135
-0.9178996	L A N	-0.4531572
-2.332873	L A P	-2.972
-0.9349328	L A R	-0.8125991
-0.9015091	L A S	-2.944945
-0.8857148	L A T	-1.404047
-2.031843	L A U	-0.2083448
-2.332873	L A V	-2.982984
-2.332873	L A W	-2.854046
-2.332873	L A X	-2.699404
-1.29148	L A Y	-0.001143927
-0.0004345118	L B A	-0.6733328
-0.3014645	L C O	-2.879748
-0.3014645	L C U	-2.762955
-1.305395	L D </s>
-0.1062383	L D <space>	0.3375096
-1.443698	L D E	-2.87289
-1.869666	L D I	-0.310463
-2.045758	L D L	0.6282753
-1.045758	L D N	-1.482589
-2.045758	L D R	-0.08196679
-2.045758	L D S	0.07733377
-1.120826	L E </s>
-0.4194497	L E <space>	0.3023581
-0.8320302	L E A	-2.396612
-2.677128	L E B	-2.602711
-1.898977	L E C	-2.792261
-1.3154	L E D	0.0146333
-1.722886	L E F	-2.939367
-2.075068	L E G	-0.38191
-1.597947	L E M	-1.576115
-0.8917983	L E N	-0.7547851
-2.677128	L E R	-2.807234
-1.064344	L E S	-0.324234
-1.376098	L E T	-0.9530042
-1.83203	L E V	-1.789197
-2.376098	L E X	-0.3904125
-2.677128	L E Y	-2.166393
-0.7101284	L F </s>
-0.09470437	L F <space>	-0.3443807
-1.130768	L G A	-0.5565075
-0.317855	L G E	-2.879241
-1.255707	L G R	-1.123784
-0.410609	L G Y	4.639145e-06
-1.290469	L I A	-0.7517385
-1.795619	L I B	-1.474047
-1.415408	L I C	-0.3769395
-1.591499	L I D	-2.718096
-1.193559	L I E	-0.8006422
-0.9631102	L I F	-2.830498
-1.114378	L I G	-0.8328847
-2.494589	L I H	-0
-0.7464012	L I K	-0
-2.193559	L I M	-2.955939
-1.132861	L I N	-2.767101
-2.494589	L I P	-2.958651
-1.795619	L I R	-0.1828006
-1.114378	L I S	-0.7405903
-0.6884092	L I T	-2.097107
-1.26414	L I V	-0.03818063
-1.398375	L K </s>
-0.143102	L K <space>	-0.5256301
-1.398375	L K E	-2.946811
-0.9212532	L K I	-0.1918806
-1.097345	L K S	2.60108
-1.016825	L L </s>
-0.240068	L L <space>	1.421984
-2.431798	L L A	-2.934793
-1.334888	L L E	-0.9007988
-1.732828	L L I	-1.257852
-2.732828	L L N	-0
-1.18876	L L O	-2.872859
-1.778586	L L S	-0.6898759
-2.130768	L L U	-0.628901
-0.7737869	L L Y	0.9539956
-1.000434	L M E	-2.910638
-0.6994045	L M L	2.60108
-0.1553365	L M O	-2.922326
-0.0004345118	L N E	-2.898529
-1.431798	L O A	0.107229
-1.674836	L O C	-0.3072516
-1.799775	L O D	-0.5085187
-1.799775	L O G	-0.4776657
-0.7717463	L O N	-1.488135
-0.7855346	L O O	-2.831718
-1.975866	L O P	-2.983615
-1.322654	L O R	-2.73787
-1.130768	L O S	0.892238
-1.373806	L O T	0.3221321
-1.431798	L O U	-0.5381714
-0.861923	L O V	0.0001135898
-0.6641124	L O W	-1.891758
-2.276896	L O X	-2.875206
-2.276896	L O Y	-2.977746
-0.1765258	L P <space>	-2.945
-0.4775558	L P I	-2.925448
-0.0004345118	L R E	-2.949525
-0.8365778	L S </s>
-0.3806458	L S <space>	-0.39745
-0.4775558	L S E	-2.782787
-0.9827057	L S O	-0.6629764
-1.591499	L T </s>
-0.7464011	L T <space>	-0.6650241
-0.8133478	L T E	-2.851844
-0.5914991	L T H	-0.3586956
-1.290469	L T I	-2.917326
-0.9894391	L T O	-1.442404
-1.114378	L T S	-0.6351634
-0.9894391	L T U	-0.3941756
-1.290469	L T Y	-1.360885
-1.070472	L U A	-0.7074481
-1.672532	L U B	-2.991235
-1.371502	L U D	-2.835379
-0.6725324	L U E	-0.7600309
-1.195411	L U G	-1.305105
-0.9735624	L U M	-0.5878821
-1.672532	L U N	-2.95771
-1.371502	L U R	-2.98322
-1.195411	L U S	-1.283532
-0.5264044	L U T	-1.188707
-1.371502	L U X	2.60108
-0.0004345118	L W A	-2.83581
-1.030667	L Y </s>
-0.04504204	L Y <space>	0.6982304
-2.363105	L Y I	0.07733377
-0.8015349	M <space> A	-0.06135239
-1.736033	M <space> B	-0.1396165
-1.957882	M <space> C	-2.844732
-1.957882	M <space> D	-2.224747
-1.736033	M <space> E	-0.6914299
-1.531913	M <space> F	-0.3985021
-1.230883	M <space> G	-0.2624542
-1.531913	M <space> H	0.2866775
-1.112784	M <space> I	0.2747756
-2.133973	M <space> K	-2.413896
-1.736033	M <space> L	0.03906981
-1.133973	M <space> M	1.287238
-1.230883	M <space> N	-0.06500317
-1.288875	M <space> O	0.006028165
-1.656852	M <space> P	-0.5336348
-1.589905	M <space> Q	-0
-1.957882	M <space> R	-0.8915165
-1.092581	M <space> S	-0.890722
-0.8329434	M <space> T	-2.078103
-2.133973	M <space> U	-0.1078503
-1.736033	M <space> V	0.3711634
-1.435003	M <space> W	1.267151
-1.531913	M <space> Y	-1.719584
-2.219232	M A </s>
-1.675164	M A <space>	-0.3436895
-2.520262	M A C	-2.963674
-1.56602	M A D	-2.955832
-1.918202	M A G	-0.6302215
-1.821292	M A I	-0.2927093
-1.073104	M A K	-1.731203
-1.374134	M A L	-1.701887
-1.617172	M A M	-2.97911
-0.5159412	M A N	-1.301764
-0.6569395	M A R	-1.164571
-1.821292	M A S	-0.4040828
-1.001748	M A T	-1.425278
-2.520262	M A X	-2.977746
-0.9182024	M A Y	-2.56919
-0.1018922	M B E	-2.975996
-1.380646	M B L	-2.475975
-1.380646	M B R	-2.848633
-0.9035245	M B U	-1.327183
-1.005472	M E </s>
-0.338019	M E <space>	0.4577445
-1.239555	M E A	-1.468233
-1.579503	M E D	0.3316607
-2.306502	M E E	-1.305381
-2.783623	M E F	-2.885558
-1.704442	M E L	-2.89375
-1.74223	M E M	-1.115171
-0.7305447	M E N	-1.096363
-1.637495	M E R	-1.057879
-1.482593	M E S	-0.5611839
-1.252144	M E T	-1.929369
-1.829381	M E W	-2.942918
-0.0004345118	M F O	-2.052776
-2.269947	M I <space>	-2.991482
-2.269947	M I C	-2.892912
-2.269947	M I D	-2.980466
-0.9911938	M I G	-2.384595
-1.190766	M I L	-0.03175079
-0.6167349	M I N	-1.440868
-1.570977	M I R	-0.6052923
-0.3354491	M I S	-1.563899
-1.093856	M I T	-0.3192807
-2.269947	M I X	-2.920906
-0.0004345118	M L Y	-0.7270344
-0.4475926	M M A	-0.9084155
-0.3336493	M M E	-0.3578824
-0.9704713	M M O	-0.2714963
-1.146563	M M U	-0.3903283
-0.0004345118	M N I	-2.995683
-2.262885	M O B	-2.985774
-1.359796	M O D	-2.940478
-1.660826	M O K	-0.125144
-0.9011577	M O M	-2.673522
-0.6946839	M O N	-0.2111304
-1.785764	M O O	-0.3629333
-0.5225228	M O R	-1.379407
-0.7857643	M O S	-2.863323
-1.086794	M O T	-0.985177
-1.484734	M O U	-1.377529
-2.262885	M O V	-1.501584
-1.851693	M P <space>	-2.967849
-0.7377496	M P A	-0.5556446
-1.152723	M P E	-0.5301095
-1.851693	M P I	-2.925448
-0.621244	M P L	0.8907129
-0.647573	M P O	-0.8790889
-0.7377496	M P R	-2.483773
-1.851693	M P S	-2.778441
-1.249633	M P T	-0.4274998
-1.296002	M R </s>
-0.02882997	M R <space>	-1.36924
-1.898062	M R S	-2.916375
-1.103097	M S </s>
-0.08885642	M S <space>	-0.9850554
-1.279188	M S E	-0.3680475
-1.279188	M S T	-0.329117
-0.4649666	M U C	-2.607295
-2.009035	M U D	-2.951747
-0.8629066	M U F	-0
-2.009035	M U L	-2.958991
-1.708005	M U N	-0.3810971
-0.3188387	M U S	-2.615932
-2.316405	M Y </s>
-0.04456325	M Y <space>	0.06378952
-1.061132	M Y S	-2.900727
-2.316405	M Y T	-0
-0.9734265	N <space> A	-0.1330752
-1.575487	N <space> B	0.8050962
-1.575487	N <space> C	0.790653
-1.805935	N <space> D	0.460941
-1.434868	N <space> E	-0.1438515
-1.390962	N <space> F	-0.8118053
-2.152723	N <space> G	-0.1694623
-1.351091	N <space> H	0.7914935
-1.138482	N <space> I	0.8195406
-2.805935	N <space> J	-0.306552
-2.504905	N <space> K	-0.3491545
-1.575487	N <space> L	0.3717419
-1.268116	N <space> M	-0.06155077
-1.876517	N <space> N	-0.7863445
-1.129242	N <space> O	-0.171442
-1.726754	N <space> P	-0.4752785
-2.805935	N <space> Q	2.60108
-2.106965	N <space> R	-0.1650881
-1.307625	N <space> S	0.7273328
-0.5555154	N <space> T	0.4178367
-2.065573	N <space> U	1.865568
-2.261867	N <space> V	0.4134519
-1.358777	N <space> W	1.310368
-1.444208	N <space> Y	0.8176655
-2.146562	N A <space>	-2.987176
-1.669441	N A B	-0.3837087
-1.669441	N A G	-0.8867263
-1.067381	N A L	-1.474404
-0.3684112	N A M	-2.82965
-1.845532	N A N	-0.3657244
-1.032619	N A R	-1.028831
-0.4838047	N A T	-2.860909
-1.462832	N B E	-0.3882652
-1.286741	N B R	-1.29004
-0.03958663	N B U	-2.890486
-0.2311222	N C E	-1.495113
-1.561536	N C H	-0.5756078
-1.114378	N C I	0.07155089
-0.8291421	N C L	-1.051804
-1.260506	N C O	-0.7458232
-1.357416	N C R	-2.57474
-1.260506	N C T	-0.2078663
-2.260506	N C Y	-2.875206
-1.364422	N D </s>
-0.2386159	N D <space>	1.415481
-1.80812	N D A	-2.628616
-0.9561823	N D E	-1.58065
-2.762362	N D F	-2.824126
-1.41994	N D I	-0.3883834
-1.80812	N D L	1.95171
-0.9235132	N D O	-1.555319
-1.917264	N D R	-2.683047
-1.364422	N D S	2.028891e-05
-1.859272	N D U	-2.523732
-2.063392	N D W	2.776813
-1.332469	N E </s>
-0.5514319	N E <space>	-0.1959243
-1.885311	N E A	-2.833452
-1.776166	N E C	-0.4466653
-0.9980149	N E D	-1.8605
-1.952257	N E E	-2.94972
-2.730409	N E G	-2.983626
-2.031439	N E I	-0.6126631
-1.211895	N E L	-1.335163
-2.128349	N E N	-1.065381
-2.730409	N E O	-2.974472
-1.885311	N E P	-2.949748
-1.283251	N E R	-0.5396808
-0.6811908	N E S	-2.258875
-2.730409	N E T	-2.901585
-0.9522574	N E V	-1.789197
-1.651227	N E W	-0.626966
-1.526289	N E X	-0.2877187
-2.031439	N E Y	0.6434497
-0.9642223	N F A	-0.3640395
-1.362162	N F E	-0.3846938
-0.6631923	N F I	-0.003841822
-0.9642223	N F L	-0.06847098
-0.4590724	N F O	-2.052776
-1.663192	N F R	-2.917904
-0.8180943	N F U	-2.31627
-0.9642223	N G </s>
-0.1614485	N G <space>	1.389318
-1.237224	N G A	-2.746171
-1.237224	N G E	-0.4202085
-1.62843	N G L	1.861784
-2.441344	N G R	-0.3828493
-1.3274	N G S	0.4840643
-2.265252	N G T	2.425523
-2.265252	N G U	-0.3585388
-0.2222833	N H A	-1.321426
-0.3983745	N H O	-0.3747268
-1.527635	N I A	-2.594114
-2.004756	N I B	-2.982644
-0.8286646	N I C	-0.422133
-1.527635	N I E	-2.784859
-1.527635	N I F	-1.316149
-0.9633631	N I G	-2.413425
-2.004756	N I M	-2.978533
-0.4484533	N I N	-2.809997
-1.402696	N I O	-0.03494628
-1.159658	N I S	-0.2850494
-0.8286646	N I T	-2.879
-1.703726	N I V	0.4116113
-0.1765258	N J O	-0.2825478
-0.4775558	N J U	-2.981535
-1.978158	N K </s>
-0.08606343	N K <space>	-0.3989777
-1.501037	N K I	-0.1918806
-1.13306	N K L	0.385118
-1.677128	N K N	-2.328075e-06
-1.978158	N K R	-0
-1.501037	N K S	1.6676
-1.740797	N L E	-2.960837
-0.008403456	N L Y	-1.993507
-0.1765258	N M A	-0.2908343
-0.4775558	N M I	-2.997661
-1.518948	N N A	-2.99689
-0.3148285	N N E	-1.301926
-0.3148285	N N O	-0.7540778
-2.666016	N O </s>
-0.8209176	N O <space>	0.07830689
-2.063956	N O B	-0.2501584
-2.188894	N O C	-0.4138106
-2.666016	N O I	-2.989016
-2.364986	N O M	-0.3957644
-1.063956	N O N	-1.704775
-1.489924	N O O	-2.92845
-1.552072	N O R	-1.699158
-0.4059442	N O T	-1.163364
-1.586834	N O U	-1.028709
-1.967046	N O V	1.275229
-0.6129371	N O W	-0.3562204
-2.364986	N O Y	-2.929485
-0.8455326	N P A	-2.978624
-0.1465626	N P L	0.1836233
-0.8455326	N P U	-2.865459
-0.0004345118	N Q U	-0.8439487
-0.3014645	N R E	-2.949525
-0.3014645	N R O	-2.913282
-0.9168885	N S </s>
-0.6051347	N S <space>	-0.5479601
-1.740797	N S A	-1.281301
-1.916888	N S C	-2.699393
-0.6381349	N S E	-1.199744
-0.8377073	N S I	-1.232518
-1.615858	N S O	-0.5964405
-1.37282	N S P	0.3644521
-0.9626459	N S T	0.1823169
-1.740797	N S U	-2.711596
-1.518948	N S W	0.9744673
-1.116398	N T </s>
-0.4362548	N T <space>	0.8394977
-1.488784	N T A	-0.4779918
-1.032852	N T E	-1.836191
-1.555731	N T H	-1.200672
-0.8867238	N T I	0.1398724
-1.379639	N T L	-1.003535
-1.856761	N T M	-2.302764
-1.356158	N T O	-2.252123
-1.172514	N T R	-0.5007045
-1.078609	N T S	-1.802348
-2.333882	N T U	-0.05518952
-1.731822	N T Y	-1.360881
-1.255707	N U A	-2.691995
-1.255707	N U E	-2.749284
-0.954677	N U I	-2.96823
-0.6536471	N U M	-0.4915656
-0.556737	N U S	-0.8001173
-0.556737	N U T	-0.1897418
-0.3526171	N V A	-0.8958434
-0.3904056	N V E	-0.5642427
-0.8297383	N V I	-1.213298
-0.0004345118	N W E	-2.872029
-0.0004345118	N X I	0.2985362
-1.803208	N Y </s>
-0.1311104	N Y <space>	0.212386
-1.25914	N Y B	-0
-2.104238	N Y O	-2.998783
-0.8489658	N Y T	-0
-1.405268	N Y W	2.776813
-1.22126	O <space> A	0.01979308
-0.9794403	O <space> B	-1.108118
-1.337766	O <space> C	0.4300486
-1.188468	O <space> D	-0.3706082
-1.752739	O <space> E	-0.2517887
-1.887438	O <space> F	0.09249706
-1.451709	O <space> G	0.1499052
-1.22126	O <space> H	-2.06929
-1.337766	O <space> I	0.578145
-2.92883	O <space> J	-2.907632
-1.974588	O <space> K	3.843931e-05
-1.384762	O <space> L	-0.9801566
-0.9994115	O <space> M	0.135128
-1.53089	O <space> N	-1.440728
-1.72471	O <space> O	-1.078901
-1.586408	O <space> P	0.4939759
-1.606611	O <space> R	-1.155309
-1.065507	O <space> S	-0.1748466
-0.9745879	O <space> T	-0.49946
-1.92883	O <space> U	0.9888108
-2.150679	O <space> V	0.3262187
-1.6278	O <space> W	1.958285
-1.188468	O <space> Y	-1.719584
-0.4775558	O A C	-0.7015799
-0.7785858	O A D	-0.1601229
-0.3806458	O A K	-0.07814455
-1.079616	O A T	-2.981535
-0.4917962	O B A	-2.907789
-1.491796	O B B	-0
-0.8897361	O B J	2.262094
-0.6466982	O B L	-0.2268011
-1.190766	O B O	-0.363339
-1.190766	O B S	-0.2878959
-1.491796	O B T	-2.972
-0.8897361	O B V	2.262094
-1.146563	O C A	-0.4597995
-0.5822911	O C C	-0.2770826
-1.322654	O C E	-0.3894731
-0.5445026	O C I	-0.4992025
-0.9247138	O C K	-0.01531371
-1.021624	O C R	-1.131411
-0.9247138	O C T	-0.1873858
-1.415408	O D </s>
-0.3484611	O D <space>	0.3426468
-1.892529	O D B	-0
-0.8925291	O D E	-0.9830603
-1.290469	O D N	-0.653678
-1.892529	O D R	-2.920906
-0.7464011	O D U	-2.620396
-0.8925291	O D Y	0.7283212
-1.491796	O E <space>	-2.987108
-0.06043239	O E S	-0.7157959
-1.014675	O E V	-0.1215966
-2.624716	O F </s>
-0.04722475	O F <space>	0.7016796
-2.624716	O F E	-2.985774
-1.345963	O F F	-1.557871
-1.846565	O F I	-1.293131
-2.624716	O F L	-2.740718
-1.448625	O F T	-2.236177
-0.5744658	O G <space>	-0.7237513
-0.4775558	O G E	-0.166991
-0.8754958	O G I	-2.973687
-1.176526	O G N	-2.886187
-0.8754958	O G R	-0.1903041
-1.176526	O G Y	-2.503605
-1.699405	O H </s>
-0.10834	O H <space>	-0.2424106
-1.699405	O H M	-2.824126
-0.745162	O H N	2.616534
-1.301464	O I C	-0.3284153
-1.602494	O I L	-2.987265
-0.046192	O I N	-1.105349
-1.602494	O I S	-2.988211
-0.4684124	O K <space>	-0.7270368
-0.5264044	O K E	0.3394387
-0.7694424	O K I	-1.859481
-0.7182899	O K S	-0
-2.196334	O L A	-2.939468
-0.6165506	O L D	0.3350277
-0.3638253	O L E	-1.503146
-1.117153	O L I	-0.9195721
-1.293244	O L L	0.1197881
-1.418183	O L O	-0.2898994
-1.719213	O L S	-0.2160033
-1.719213	O L T	-0.5019955
-0.9410616	O L U	-1.158239
-1.964222	O M </s>
-0.6420031	O M <space>	0.4479497
-1.061132	O M A	-1.166867
-0.2769907	O M E	-1.813864
-2.441344	O M F	-0
-1.3274	O M I	-0.5786078
-1.487101	O M M	0.1536789
-2.441344	O M N	-0
-1.3274	O M P	-0.7558532
-2.441344	O M S	-2.964322
-2.140314	O M Y	-1.967048
-1.015017	O N </s>
-0.405084	O N <space>	0.01212011
-1.782702	O N A	-0.6331879
-1.437469	O N C	-0.7312545
-1.266073	O N D	-0.3944918
-0.7329308	O N E	-1.196234
-1.887438	O N F	-1.003287
-1.513857	O N G	0.3952267
-2.6278	O N H	-0.1773604
-1.974588	O N I	-0.5083217
-1.481672	O N L	-1.282479
-2.451709	O N N	-1.044743
-2.451709	O N O	-0.5611461
-1.04234	O N S	-0.9083118
-1.698381	O N T	-1.4133
-2.150679	O N V	0.04941709
-2.6278	O N Y	-2.38889
-1.756309	O O </s>
-1.119487	O O <space>	-0.3500797
-0.6313706	O O D	-1.060443
-1.932401	O O F	0.5880934
-0.7149167	O O K	1.400096
-1.388333	O O L	-1.344964
-0.8910079	O O M	-2.021639
-0.8184573	O O N	-1.049791
-2.233431	O O P	-2.975202
-0.9781581	O O R	-2.729287
-1.631371	O O S	-0.5221665
-1.932401	O O T	-2.160064
-2.033858	O P </s>
-1.556737	O P <space>	-2.920887
-0.5287083	O P E	-0.3716613
-1.255707	O P I	-1.114627
-0.5287083	O P L	-2.59319
-2.033858	O P M	-0
-0.8034094	O P O	-2.668366
-1.18876	O P P	-2.490407
-1.431798	O P S	-0.6033652
-1.556737	O P T	-0.2636728
-1.732828	O P Y	-0
-1.903524	O R </s>
-0.4347553	O R <space>	0.6880768
-1.602494	O R A	-0.9365734
-2.271501	O R B	-1.089687
-2.146562	O R C	-0.4883661
-1.168839	O R D	-1.671342
-1.016229	O R E	-1.292416
-1.544502	O R G	-0.3943978
-1.748622	O R I	-0.4159538
-1.79438	O R K	-0.7284785
-1.845532	O R L	-2.943944
-1.49335	O R M	-0.06408549
-1.572531	O R N	-0.6945168
-2.049652	O R O	-0.1769735
-1.572531	O R R	0.6518379
-1.748622	O R S	0.5673316
-0.7032994	O R T	-0.7516555
-2.271501	O R W	1.6676
-1.602494	O R Y	-0.9538344
-1.869666	O S A	-0.3928517
-0.4072683	O S E	-1.441136
-0.9154237	O S I	-1.820478
-2.170696	O S P	-2.963609
-0.7393325	O S S	-1.908022
-0.5686363	O S T	-2.36884
-1.869666	O S V	2.60108
-1.482788	O T </s>
-0.304073	O T <space>	1.31292
-1.410238	O T E	-0.4446386
-0.4449997	O T H	-1.728527
-1.445	O T I	-0.4150006
-2.524181	O T L	-2.996038
-2.524181	O T O	-2.981451
-2.223151	O T S	0.2983165
-1.621091	O T T	-0.1705667
-1.431456	O U </s>
-0.4107068	O U <space>	1.285482
-1.8248	O U B	-2.381581
-2.626432	O U C	-0.9396951
-2.802524	O U D	-0.3506662
-3.103554	O U E	-2.989287
-1.470085	O U G	-2.56406
-0.9188622	O U L	-2.365652
-1.159071	O U N	-2.60535
-0.7513711	O U R	-1.113828
-1.179274	O U S	-2.22468
-1.062161	O U T	-1.189584
-0.01400725	O V E	-0.2428155
-1.512318	O V I	-0.2370356
-1.112857	O W </s>
-0.3249456	O W <space>	0.4742394
-1.552189	O W A	-0.3532017
-2.154249	O W D	-0
-1.057339	O W E	-0.8160819
-1.610181	O W I	-2.979628
-2.154249	O W L	2.60108
-0.5687887	O W N	7.083897e-05
-1.610181	O W S	-2.127733
-0.6024945	O X <space>	-2.970068
-0.6024945	O X E	-2.523746
-0.6024945	O X H	-0
-0.6024945	O X O	-2.824126
-0.6994045	O Y </s>
-0.347222	O Y <space>	-0.8124689
-1.301464	O Y A	-2.699404
-1.301464	O Y E	-2.982984
-1.000434	O Y F	2.60108
-1.301464	O Y M	-2.824126
-1.000434	O Y S	0.02632579
-0.7205939	P <space> A	-0.616596
-1.623684	P <space> B	-2.981278
-1.623684	P <space> E	-2.905835
-1.021624	P <space> F	-1.129711
-1.322654	P <space> H	-0.3440171
-1.623684	P <space> I	-2.876664
-1.623684	P <space> L	-2.809459
-1.322654	P <space> M	-2.851777
-1.146563	P <space> O	-1.060728
-1.623684	P <space> S	-2.994254
-0.4475926	P <space> T	0.01920211
-1.146563	P <space> W	-0.3169461
-1.716438	P A <space>	-0.3860956
-1.318498	P A C	-0.2001528
-1.540347	P A D	-1.310882
-1.318498	P A G	-0.9219663
-1.063225	P A I	-2.777457
-1.540347	P A N	-0.509284
-1.239317	P A P	-0.5356446
-0.25404	P A R	-1.462306
-1.239317	P A S	-0.5385593
-1.318498	P A T	-0.6543681
-1.716438	P A Y	-2.063618
-2.406975	P E </s>
-1.105945	P E <space>	-0.5282969
-0.915613	P E A	-2.705686
-0.7941909	P E C	-2.414754
-1.929853	P E D	-0.5730408
-2.406975	P E E	-2.91331
-1.628823	P E L	-1.091495
-1.009035	P E N	0.1579739
-0.9298534	P E O	-2.1575
-0.462492	P E R	-1.081317
-1.929853	P E S	-0.443912
-1.708005	P E T	-1.490751
-2.406975	P E W	-2.56878
-0.4079198	P H E	-0.9178012
-1.061132	P H I	-0.373846
-0.885041	P H O	-1.301942
-1.061132	P H R	-0.3859679
-0.5170643	P H Y	-2.916546
-1.279188	P I A	-0.2356161
-0.9781581	P I C	-1.307197
-1.580218	P I D	-2.785652
-1.279188	P I E	-2.844478
-0.8020668	P I L	-0.4248095
-0.5388254	P I N	-0.1924041
-0.8020668	P I R	-2.887871
-0.8020668	P I T	-0.4579391
-0.5068451	P L A	-0.8845917
-0.2160344	P L E	-1.087328
-1.839284	P L I	-2.953042
-1.663192	P L O	-0.5335767
-1.362162	P L Y	1.970732
-0.0004345118	P M E	-2.910638
-2.201832	P O A	-2.824126
-1.900802	P O C	-2.895372
-0.9977117	P O I	-1.880404
-1.72471	P O K	-1.179
-1.42368	P O L	-2.965504
-1.160439	P O N	-1.494894
-0.9713828	P O O	-2.951747
-1.900802	P O P	-0.2464924
-0.859409	P O R	-1.304769
-0.3210182	P O S	-0.2043949
-1.72471	P O U	-1.301195
-0.5867002	P P E	-0.891613
-1.00583	P P I	-0.6620044
-1.90892	P P L	-2.993666
-0.3648515	P P O	-2.452885
-0.9089195	P P R	-0.04366535
-1.130768	P P Y	1.667589
-1.054792	P R A	-2.867736
-0.4971513	P R E	-1.146087
-0.666612	P R I	-1.289481
-0.423574	P R O	-1.025728
-0.8754958	P S </s>
-0.3983745	P S <space>	-0.7229226
-0.8754958	P S E	-2.837061
-0.5744658	P S H	-0.7001568
-1.176526	P S T	-2.930197
-0.4034541	P T <space>	-0.5596994
-1.332873	P T A	-2.871198
-1.633903	P T C	-2.903199
-0.9349329	P T E	-0.6129244
-0.429783	P T I	-0.5064664
-1.633903	P T S	-2.302764
-1.633903	P T U	-2.990769
-0.5744658	P U B	-2.699404
-1.477556	P U L	-2.998295
-1.000434	P U N	-0.5124894
-1.176526	P U P	-0.3821234
-0.6994045	P U R	-0.4845489
-0.4775558	P U T	-2.478134
-0.3014645	P Y </s>
-0.3014645	P Y <space>	-0.6577083
-0.954677	Q U A	0.3864983
-0.711639	Q U E	0.4592482
-1.732828	Q U H	2.60108
-0.1705353	Q U I	-0.4836272
-0.9845794	R <space> A	-0.4069135
-1.239033	R <space> B	-1.310118
-1.277492	R <space> C	0.8787215
-1.441684	R <space> D	0.4322626
-1.478406	R <space> E	-0.3464663
-1.430102	R <space> F	0.2907711
-1.667463	R <space> G	0.002686155
-1.376417	R <space> H	1.601992
-1.106795	R <space> I	-0.7753369
-2.009885	R <space> J	2.66157
-3.009885	R <space> K	-2.527463
-1.731132	R <space> L	0.3934225
-1.224556	R <space> M	-0.01207164
-1.578522	R <space> N	0.3054648
-1.28561	R <space> O	-0.4437594
-1.376417	R <space> P	0.8754875
-2.708855	R <space> Q	2.60108
-1.805765	R <space> R	0.6548372
-1.190341	R <space> S	0.3929082
-0.9568069	R <space> T	-0.3698252
-1.754613	R <space> U	0.2899682
-2.407825	R <space> V	0.2951033
-1.112258	R <space> W	1.415781
-1.441684	R <space> Y	0.9071408
-1.359004	R A B	-2.817423
-0.6528554	R A C	-1.037331
-1.961064	R A D	-0.5417774
-1.438185	R A G	-0.5844075
-1.040245	R A I	-1.027195
-0.9610638	R A L	-1.140756
-1.438185	R A M	-0.3955937
-0.8818825	R A N	-1.704898
-1.836125	R A O	2.262094
-1.739215	R A P	-0.2226899
-1.483943	R A R	-0.206389
-2.137155	R A S	-0.3644375
-0.8471205	R A T	-2.860223
-2.438185	R A U	-2.809425
-1.359004	R A V	-0.2129165
-1.836125	R A W	-0.6462377
-1.396792	R A Y	-2.462495
-0.5445026	R B <space>	-2.699393
-0.3684113	R B I	-1.248172
-0.5445026	R B U	-0.2894054
-0.3594565	R C E	-0.3392109
-0.4264032	R C H	-0.4200855
-1.204554	R C L	-2.586957
-0.9035245	R C U	-0.331093
-1.098679	R D </s>
-0.6811431	R D <space>	0.008624909
-1.309532	R D A	-2.642383
-0.513652	R D E	-1.350054
-0.8508942	R D I	-2.790228
-0.9338684	R D L	-1.972805
-1.367524	R D O	-2.826226
-1.309532	R D S	2.463865
-2.212622	R D U	-2.990866
-1.232704	R E </s>
-0.3887156	R E <space>	1.049157
-0.959703	R E A	-1.580012
-1.533734	R E C	0.1420728
-1.357643	R E D	0.5837413
-1.565919	R E E	-1.45633
-1.776772	R E F	-0.8201604
-2.077802	R E G	-0.3663059
-2.679862	R E H	-0.3118661
-1.378832	R E L	-0.9983548
-1.412691	R E M	-2.037935
-1.582952	R E N	-0.09553652
-2.077802	R E P	-0.5247933
-2.202741	R E Q	-0
-2.679862	R E R	-0.2061535
-0.9394995	R E S	0.07451622
-1.368108	R E T	0.02576406
-2.077802	R E V	1.054285
-2.503771	R E W	-0.5173854
-2.679862	R E Y	0.434687
-0.56053	R F A	-2.743777
-0.2829811	R F E	-2.7831
-1.538254	R F O	0.5483042
-0.7601024	R F U	-2.31627
-1.204554	R G A	-2.971623
-0.3916412	R G E	-0.4924604
-0.6604865	R G I	-2.769855
-0.7274332	R G O	-0.4834844
-0.9035245	R G U	-0.3348714
-0.1253732	R H A	-1.321426
-0.6024945	R H O	-2.985038
-1.17256	R I A	-0.4741786
-1.56074	R I B	-2.439693
-1.816012	R I C	-0.4367665
-1.401039	R I D	-0.8509943
-0.6399211	R I E	-0.4828228
-2.037861	R I F	-2.959906
-1.153254	R I G	-1.479245
-2.213952	R I L	-0.1294219
-1.669884	R I M	-0.6404454
-1.083619	R I N	-0.9870936
-1.083619	R I O	-1.358546
-1.736831	R I P	0.1363504
-0.6228877	R I S	-1.200937
-1.310862	R I T	-0.2898482
-1.368854	R I V	0.05477252
-1.362162	R K </s>
-0.4079198	R K <space>	-0.6262444
-1.362162	R K A	-0
-0.4590724	R K B	-0
-1.362162	R K E	-2.980082
-1.061132	R K I	0.7415993
-1.362162	R K S	-0
-1.518948	R L </s>
-0.6158585	R L <space>	-0.4745637
-0.9168885	R L D	-2.224
-0.7785858	R L I	-2.895127
-1.819978	R L O	-2.92228
-1.217918	R L S	-0.5041328
-0.4397672	R L Y	-0.7270424
-1.484734	R M </s>
-0.706583	R M <space>	-0.6203091
-0.5304918	R M A	-1.157818
-0.9406663	R M E	-2.896337
-0.706583	R M I	-1.002728
-1.183704	R M O	-1.338048
-1.183704	R M S	-0.4801895
-1.484734	R M Y	0.6119788
-2.235963	R N </s>
-0.9806903	R N <space>	-0.07845932
-2.235963	R N A	-2.961123
-0.2491912	R N E	-2.799271
-1.089835	R N I	-2.759471
-0.6231791	R N O	-2.945139
-1.856256	R O A	-1.153641
-1.379135	R O B	-0.8269572
-1.312188	R O D	-2.91418
-1.555226	R O F	-2.991694
-2.157286	R O G	-0.3368387
-1.680165	R O K	-2.8466
-2.157286	R O L	-0.3762297
-0.742313	R O M	-1.629095
-1.504074	R O N	-1.030053
-1.096588	R O O	-1.382732
-0.981195	R O P	-0.9430774
-1.856256	R O R	-0.4785921
-1.416924	R O S	-0.001906148
-0.6729866	R O T	-0.2246809
-0.9959183	R O U	-0.7999338
-1.344373	R O V	2.332677e-05
-1.613218	R O W	-0.236186
-0.7785858	R P L	-2.59319
-0.7785858	R P O	-2.718079
-0.1765258	R P R	-0.6325151
-0.0004345118	R Q U	-0.39081
-1.267606	R R A	-2.938892
-1.045758	R R E	-0.8829056
-0.2196827	R R I	-1.364016
-1.20066	R R O	-0.8881511
-1.568636	R R U	-1.27447
-0.790485	R R Y	-2.117706
-0.7565914	R S </s>
-0.6197535	R S <space>	-0.1423751
-1.710834	R S A	-1.281301
-1.710834	R S D	1.6676
-0.6081716	R S E	-0.8298848
-1.585895	R S I	-0.5647913
-1.233713	R S O	-2.95076
-0.6694412	R S T	-0.5795659
-1.722657	R T </s>
-0.862319	R T <space>	-0.888493
-0.7932381	R T A	-2.792176
-1.625747	R T E	-1.198577
-2.023687	R T F	-0.2851067
-0.461394	R T H	-2.872878
-1.023687	R T I	-1.242629
-1.546566	R T L	-2.675095
-2.324717	R T M	-2.954291
-1.847596	R T S	-0.6351634
-0.9822942	R T U	-2.279412
-1.245536	R T Y	-1.360914
-1.301464	R U A	-0.1965276
-1.602494	R U C	-2.99536
-1.602494	R U D	-2.897454
-1.301464	R U E	-0.3047551
-1.602494	R U G	-2.972705
-1.301464	R U I	0.2983165
-1.301464	R U L	-0.3955035
-1.602494	R U M	-2.954291
-1.125373	R U N	-0.5649614
-0.9035245	R U P	-0.7939701
-0.6994045	R U S	-2.828559
-0.5233133	R U T	-2.412993
-0.6694413	R V A	-2.811162
-0.2434726	R V E	-1.126075
-0.8455326	R V I	-2.771263
-1.146563	R V O	-2.833871
-0.0004345118	R W A	-0.6938138
-1.002102	R Y </s>
-0.09485575	R Y <space>	0.413961
-2.417075	R Y B	-0
-2.417075	R Y E	-2.982984
-1.186626	R Y I	-1.610781e-05
-1.638924	R Y T	-0
-0.830437	S <space> A	-0.6131459
-1.399773	S <space> B	0.7864806
-1.334832	S <space> C	0.08611879
-1.648097	S <space> D	0.8416903
-1.493195	S <space> E	-0.06771047
-1.443977	S <space> F	1.639978
-1.849742	S <space> G	-0.6878119
-1.510924	S <space> H	0.5062446
-1.055444	S <space> I	-0.2208104
-2.192165	S <space> J	0.7395651
-2.493195	S <space> K	0.3781973
-1.673651	S <space> L	0.4921691
-1.278351	S <space> M	0.5056008
-1.237922	S <space> N	0.3406171
-1.131467	S <space> O	0.2417498
-1.30007	S <space> P	0.4144939
-1.988045	S <space> Q	-0
-1.794225	S <space> R	-1.394881
-1.278351	S <space> S	-0.3434562
-0.9417448	S <space> T	-0.5795921
-2.112984	S <space> U	0.741607
-1.794225	S <space> V	-0.1424923
-1.501969	S <space> W	1.89319
-1.558696	S <space> Y	-1.719584
-1.556737	S A B	-0.5553292
-2.158797	S A C	-2.991199
-1.556737	S A D	-1.203141
-2.158797	S A F	-2.992829
-1.012669	S A I	-2.885892
-1.459827	S A K	0.1741022
-1.857767	S A L	-2.936513
-1.204554	S A M	-2.82965
-0.7970692	S A N	-2.749611
-1.380646	S A P	-2.602711
-1.556737	S A R	-0.714219
-0.954677	S A T	-1.954088
-1.857767	S A V	-1.707134
-1.380646	S A W	-0.1263487
-0.4866992	S A Y	0.9818104
-0.06738132	S B A	-2.935427
-0.8455326	S B Y	-1.995377
-1.477556	S C A	-2.843328
-1.000434	S C E	-1.306265
-1.000434	S C H	-0.5133748
-0.6994045	S C I	-0.7371433
-0.6994045	S C O	-0.06507617
-0.5233133	S C R	0.1878089
-1.176526	S C U	-2.945309
-0.0004345118	S D A	-0.3802892
-1.032282	S E </s>
-0.5218535	S E <space>	0.09161622
-1.99607	S E A	-0.7255867
-1.849942	S E C	-0.5835949
-1.163561	S E D	-1.86051
-0.7865547	S E E	-0.9288941
-2.69504	S E F	-2.885558
-2.39401	S E H	-0.3118661
-2.69504	S E K	-2.967849
-1.163561	S E L	-2.124971
-2.39401	S E M	-2.84808
-0.9026481	S E N	-0.5729059
-2.39401	S E P	-0.3636286
-2.09298	S E Q	2.262094
-1.217918	S E R	-2.226905
-1.518948	S E S	-0.3314603
-1.916888	S E T	-0.2618496
-1.69504	S E V	-1.789197
-2.09298	S E X	-0.6816784
-0.1765258	S F A	-2.840492
-0.954677	S F I	-2.987301
-0.954677	S F O	-2.052776
-0.954677	S F Y	-0
-0.1253732	S G R	-1.123784
-0.6024945	S G U	-2.964565
-1.778586	S H </s>
-0.8754958	S H <space>	-0.3642178
-0.9334877	S H A	-1.291797
-0.5481369	S H E	-2.259482
-1.079616	S H I	-0.3171912
-1.954677	S H M	0.07733377
-0.4775558	S H O	-1.326146
-1.653647	S H R	-0.6379033
-2.401835	S I A	-2.995726
-0.9704712	S I B	-2.294212
-1.225744	S I C	-2.699372
-0.883321	S I D	-2.785652
-1.702865	S I G	-0.01125963
-1.623684	S I L	-0.1136921
-1.255707	S I M	-1.802923
-0.6942648	S I N	-1.271553
-0.896685	S I O	-2.29704
-1.021624	S I R	-1.258
-1.447592	S I S	-2.451421
-0.9868616	S I T	-0.924049
-1.799775	S I V	0.07262522
-1.799775	S I X	-0.2616523
-2.401835	S I Z	-0
-1.130768	S K </s>
-0.1307683	S K <space>	-0.5557208
-0.7328283	S K E	-0.651115
-1.097345	S L A	-2.913159
-1.398375	S L E	-2.960837
-0.444132	S L I	-0.919823
-1.398375	S L O	-2.997698
-0.3191933	S L Y	1.101291
-0.6816758	S M </s>
-0.3594564	S M <space>	-0.2114222
-0.6024945	S M A	-1.039381
-1.681676	S M E	-2.910638
-1.079616	S M O	-0.7283175
-0.06113234	S N <space>	-2.858368
-1.061132	S N A	-0.3566399
-1.362162	S N E	-2.898529
-1.288609	S O </s>
-0.5616104	S O <space>	0.8178838
-1.288609	S O C	-2.854046
-1.890669	S O E	-1.288242
-1.112518	S O L	-0.8454775
-0.5352815	S O M	-2.673522
-0.9698503	S O N	-0.4589675
-1.36779	S O O	-2.92845
-1.288609	S O R	-2.889417
-1.589639	S O U	-0.2107759
-1.890669	S O W	-0.4229999
-0.9857112	S P A	-0.1134484
-0.2075599	S P E	-0.9167934
-1.638924	S P H	-0.1835991
-1.094856	S P I	-0.1019672
-1.462832	S P L	0.5190332
-0.9399537	S P O	-0.2586154
-1.638924	S P R	-0.293529
-0.0004345118	S Q U	-0.4354031
-0.3014645	S R E	-2.946969
-0.3014645	S R S	-2.880802
-1.206489	S S </s>
-0.2591954	S S <space>	-1.112766
-1.750557	S S A	-0.7256838
-1.073863	S S E	-1.212149
-0.6536471	S S I	-2.027428
-1.750557	S S L	-0.4543099
-2.352617	S S N	-2.980715
-1.574466	S S O	-0.227205
-2.352617	S S R	-2.699404
-2.051587	S S U	-2.817875
-0.9886431	S T </s>
-0.3963869	S T <space>	-0.04844261
-0.8283461	S T A	-0.3359603
-0.965979	S T E	-0.6880954
-0.965979	S T I	-0.9853429
-2.134771	S T L	-0.4677405
-2.435801	S T M	0.2983165
-2.736831	S T N	-2.699404
-1.532711	S T O	-0.4319732
-1.180529	S T R	2.1204
-1.95868	S T S	0.895431
-2.25971	S T U	-0.1994004
-2.25971	S T Y	0.08200526
-1.097344	S U A	-2.691995
-0.9010498	S U B	-2.448257
-0.9424425	S U C	-1.678054
-1.28923	S U D	-2.721637
-1.766351	S U F	1.6676
-1.766351	S U G	-0.5357552
-1.641412	S U I	-0.0406696
-1.766351	S U L	-1.309698
-1.544502	S U M	-0.5878821
-1.641412	S U N	-0.645447
-0.8455325	S U P	-1.285087
-0.5031098	S U R	-1.436725
-1.340382	S U S	-0.3046265
-0.0004345118	S V E	-0.3615019
-1.204554	S W A	-2.992646
-0.02846322	S W E	-0.5793089
-0.7785858	S Y </s>
-0.4775558	S Y <space>	-0.3623784
-0.4775558	S Y M	0.07733377
-0.7785858	S Y S	-2.995042
-0.9592383	T <space> A	0.9477082
-1.379351	T <space> B	0.3463822
-1.563268	T <space> C	1.332137
-1.631533	T <space> D	-0.06716364
-1.622389	T <space> E	0.3755726
-1.723847	T <space> F	-2.168938
-1.735429	T <space> G	1.418512
-1.406004	T <space> H	-1.313678
-0.7295994	T <space> I	-0.5987103
-2.525479	T <space> J	1.02752
-1.981411	T <space> K	-1.019723
-1.670162	T <space> L	-1.67044
-1.266204	T <space> M	-1.159727
-1.798481	T <space> N	0.9731744
-1.316859	T <space> O	-0.01948815
-1.622389	T <space> P	0.4013915
-2.262238	T <space> Q	-0
-1.772152	T <space> R	2.138728
-1.189687	T <space> S	-1.768092
-0.9005101	T <space> T	-1.712048
-1.905691	T <space> U	0.7152491
-2.458533	T <space> V	0.01468654
-1.231749	T <space> W	-0.1837841
-1.339843	T <space> Y	0.5767409
-1.224948	T A </s>
-1.338891	T A <space>	-0.7089656
-1.25971	T A B	-0.976756
-2.338891	T A C	-2.963674
-2.037861	T A G	0.04675354
-0.8617698	T A I	-2.604227
-1.060137	T A K	-0.8678287
-0.7706894	T A L	-0.897082
-2.037861	T A M	-0.3857431
-0.7261073	T A N	-1.119045
-1.639921	T A P	-0.1951871
-1.493793	T A R	-0.2295795
-1.493793	T A S	-0.8377446
-0.9239177	T A T	-2.901132
-1.56074	T A Y	-0.3330198
-0.09734453	T C H	-1.195623
-0.6994045	T C Y	-2.699404
-2.04419	T E </s>
-0.5939405	T E <space>	-0.371469
-1.567068	T E A	-1.919134
-0.9578299	T E D	-0.3707584
-1.84007	T E E	-2.517178
-2.44213	T E F	-0.2844776
-1.027156	T E L	-1.312458
-1.84007	T E M	-2.737138
-0.8293459	T E N	-0.5565272
-2.74316	T E P	-2.993167
-0.5390397	T E R	-0.5621087
-1.567068	T E S	-0.483175
-2.266038	T E V	-0.1215966
-0.8133478	T F I	-0.3775435
-0.6372566	T F O	-0.3851757
-0.2112878	T F U	-2.31627
-2.238732	T H </s>
-1.131522	T H <space>	0.546254
-0.6800232	T H A	-2.687469
-0.3103357	T H E	-0.9327582
-3.238732	T H F	-0
-0.7587248	T H I	-2.304599
-3.238732	T H L	-0
-1.636672	T H O	-0.6300841
-1.823758	T H R	0.01738058
-2.393634	T H S	2.733403
-2.636672	T H U	-0.9964129
-2.937702	T H Y	0.2018393
-1.57709	T I A	-0.7285452
-2.016423	T I B	-0.2354046
-0.8702945	T I C	-0.713877
-2.618482	T I D	-2.986138
-1.339729	T I E	-2.789456
-2.141361	T I F	-0.5515416
-2.618482	T I G	-2.958289
-1.296263	T I L	-1.064033
-0.9557247	T I M	-2.684216
-0.9372412	T I N	-2.165238
-0.4631464	T I O	-1.500646
-1.539301	T I R	-2.868751
-1.36321	T I S	-1.258106
-1.773385	T I T	-0.5148092
-1.238271	T I V	-2.081123
-2.618482	T I Z	-0
-2.041827	T L A	-2.944083
-0.2783993	T L E	-1.647252
-0.3342571	T L Y	0.0001105172
-1.000434	T M A	-2.84209
-0.09734453	T M E	-2.910638
-1.000434	T M O	-2.922326
-0.3014645	T N <space>	-2.858368
-0.3014645	T N E	-2.898529
-2.223801	T O </s>
-0.08549787	T O <space>	0.9637254
-2.223801	T O C	-1.34962
-2.126891	T O G	-0.04731269
-2.825861	T O K	-2.8466
-1.711917	T O L	-2.879786
-2.348739	T O M	-2.194888
-1.711917	T O N	-0.4360647
-1.595412	T O O	-1.995951
-2.223801	T O P	-2.925687
-1.378703	T O R	-0.8515843
-2.348739	T O U	-1.331372
-1.445649	T O W	-1.312663
-0.5242992	T R A	-0.074592
-0.7363881	T R E	-0.7467125
-1.126359	T R I	-0.8751921
-0.9636319	T R O	-0.211685
-0.8060241	T R U	-1.023094
-0.7527786	T R Y	-1.985421
-0.8621318	T S </s>
-0.09734453	T S <space>	-0.1592978
-1.903524	T S E	-2.969128
-1.903524	T S I	-2.939109
-1.426403	T S O	-1.326777
-1.836125	T T A	-2.993977
-0.2738322	T T E	-2.263456
-1.438185	T T I	-0.4103583
-0.5350951	T T L	-2.675095
-1.836125	T T O	-0.3904061
-1.234065	T T R	-2.796715
-1.292057	T T Y	-2.384741
-0.9781581	T U A	-2.691995
-1.501037	T U D	-0.4419967
-0.5802181	T U N	-1.309242
-1.677128	T U O	2.60108
-0.2621548	T U R	-1.568841
-1.501037	T U T	-0.525637
-0.3392531	T W E	-0.3967069
-1.079616	T W I	-2.951618
-0.3392531	T W O	-2.976881
-0.6584459	T Y </s>
-0.1206268	T Y <space>	-0.3100391
-1.658446	T Y L	2.60108
-0.758783	U <space> A	-1.231796
-1.693281	U <space> B	0.8337701
-1.21616	U <space> C	-1.047307
-1.331554	U <space> D	-0.4484764
-1.693281	U <space> E	-0.1910119
-1.994311	U <space> F	-1.121628
-1.693281	U <space> G	-0.5617084
-0.9529186	U <space> H	-2.372944
-1.547153	U <space> I	0.2467328
-1.6141	U <space> K	-1.894935
-1.371062	U <space> L	1.026464
-1.049829	U <space> M	-0.3020739
-1.693281	U <space> N	-1.172281
-2.091221	U <space> O	-0.466234
-1.91513	U <space> P	-0.4692082
-2.392251	U <space> Q	2.60108
-1.739039	U <space> R	-2.559117
-1.188131	U <space> S	-0.1973712
-1.080498	U <space> T	-0.4655681
-1.994311	U <space> U	0.08644322
-2.091221	U <space> V	-0.1435556
-0.9298534	U <space> W	1.30321
-2.392251	U <space> Y	0.8814959
-1.169227	U A B	-0.5553292
-1.470257	U A G	0.04675354
-0.2941653	U A L	-0.5583624
-1.771287	U A N	-2.997085
-0.4288639	U A R	-0.6005284
-1.699405	U B </s>
-0.6994045	U B J	-0
-0.3014645	U B L	-2.321663
-1.699405	U B S	-2.888976
-0.5854612	U B T	0.2892921
-1.274592	U C A	-0.1967783
-1.496441	U C C	-1.211965
-0.7182899	U C E	-0.4898255
-0.2253745	U C H	-1.270547
-1.973562	U C K	-2.762231
-1.371502	U C T	-0.5940932
-1.128464	U C U	-2.932173
-0.9781581	U D <space>	-2.95233
-0.3249456	U D D	-2.553623
-0.6771281	U D E	-1.422086
-1.279188	U D G	-2.920906
-0.9781581	U D I	-2.831909
-1.279188	U D Y	-2.904723
-1.312188	U E </s>
-0.7101284	U E <space>	-0.8826497
-1.613218	U E D	-2.240641
-0.5718256	U E N	-0.3978282
-0.3579458	U E S	-2.623791
-1.613218	U E T	-2.825198
-0.0004345118	U F F	-1.603928
-1.613218	U G A	-0.2175214
-1.215278	U G G	1.451914
-0.198245	U G H	-0.02846807
-0.5525205	U G U	-2.739944
-0.0004345118	U H A	-0.376689
-1.628823	U I D	-2.781148
-1.929853	U I N	-2.809997
-1.026763	U I R	-2.881602
-1.230883	U I S	-0.7538812
-0.09734453	U I T	-1.268429
-1.929853	U I X	-2.920906
-1.561877	U L </s>
-0.9018247	U L <space>	0.1557565
-1.045247	U L A	-2.877234
-0.2279979	U L D	-1.091833
-2.105945	U L E	-2.726797
-1.804915	U L G	-0.7045169
-1.561877	U L I	-2.871463
-1.327793	U L L	-0.5804127
-2.105945	U L O	-0.382546
-2.406975	U L P	-2.824126
-1.293031	U L T	-0.5040897
-2.406975	U L Y	-2.95752
-0.3636125	U M B	-2.224063
-0.4775558	U M E	0.3003532
-1.477556	U M I	-2.971066
-1.000434	U M P	-2.934124
-1.176526	U M S	-0.3754628
-1.477556	U M U	-2.995726
-2.032516	U N <space>	-2.922919
-1.395694	U N A	-2.768041
-0.7462091	U N B	1.23255
-1.032516	U N C	-0.5273641
-0.7172454	U N D	-0.1494655
-1.810667	U N E	-1.356154
-1.395694	U N F	-1.65702
-0.991123	U N G	-0.7470772
-2.032516	U N H	-0.9351106
-1.395694	U N I	-0.6677901
-2.208607	U N K	-2.976532
-2.509637	U N L	-2.992039
-2.032516	U N M	2.425523
-2.509637	U N N	-2.712344
-2.509637	U N O	-2.99718
-1.664539	U N P	2.630955
-2.208607	U N R	-0
-1.907577	U N S	-2.824114
-0.6771281	U N T	-1.188734
-2.509637	U N W	-0
-0.0004345118	U O U	-1.302663
-1.597032	U P </s>
-0.4666978	U P <space>	-0.1372473
-1.597032	U P A	-0.3775435
-1.42094	U P E	-0.3882679
-1.42094	U P I	-0.4719207
-0.9949715	U P O	-2.968897
-0.4830882	U P P	-1.676743
-1.898061	U P R	-2.894609
-1.42094	U P S	-2.824107
-1.296002	U P T	-0.02127471
-1.780649	U R </s>
-0.4135595	U R <space>	-0.2734761
-1.370474	U R A	-1.134747
-2.625747	U R B	-2.854046
-1.926777	U R C	-0.01932736
-1.511804	U R D	-0.2646138
-0.7996721	U R E	-0.825644
-2.625747	U R F	-2.860286
-2.625747	U R G	-2.972
-2.625747	U R H	-2.875206
-1.584354	U R I	-0.2162327
-2.324717	U R L	-2.760549
-1.421627	U R N	0.1738878
-1.847596	U R P	2.087179
-2.023687	U R R	-0.6969472
-0.9822942	U R S	-0.556693
-1.926777	U R T	-0.159045
-0.8698721	U R Y	-0.3052747
-1.260207	U S </s>
-0.7084526	U S <space>	-0.2233291
-1.765357	U S A	-0.636809
-1.686176	U S B	-2.1575
-1.686176	U S C	-0.3720152
-0.8015696	U S E	-1.240674
-2.464327	U S H	-2.937919
-0.9729657	U S I	-2.050787
-1.561237	U S L	-2.716404
-1.765357	U S P	0.1971085
-2.163297	U S S	-2.562377
-0.4911996	U S T	-1.025188
-1.318199	U S U	-2.963826
-1.412615	U T </s>
-0.1553366	U T <space>	-0.3011592
-1.130068	U T E	-0.2622402
-2.190766	U T F	-0.326448
-1.377853	U T H	-1.549075
-1.491796	U T I	-0.5193861
-2.190766	U T L	-1.003535
-2.491796	U T M	-2.954291
-2.190766	U T R	-0.2446251
-2.491796	U T S	-2.994543
-1.412615	U T T	-0.82786
-1.889736	U T U	-0.3941756
-1.450403	U T Y	-2.384741
-0.0004345118	U X U	2.60108
-0.0004345118	U Y <space>	-2.911773
-1.531913	V A B	-2.817423
-1.230883	V A C	-2.961765
-1.054792	V A G	-1.291755
-0.4179701	V A L	-2.974061
-0.7537622	V A N	-0.7493307
-1.054792	V A R	-1.319806
-1.531913	V A S	-2.965518
-0.8329434	V A T	-0.7354082
-1.678041	V E </s>
-0.3369368	V E <space>	0.377686
-2.854133	V E A	-2.949575
-1.708005	V E D	-2.240641
-2.854133	V E G	-2.966611
-1.623684	V E L	-0.3078574
-2.377011	V E M	-1.204307
-1.083281	V E N	-0.978346
-0.4475925	V E R	-0.8559845
-1.575379	V E S	-0.574071
-2.854133	V E T	-2.986918
-1.308643	V I A	-1.216028
-1.484734	V I B	-0.3634844
-1.007613	V I C	-0.6698293
-1.308643	V I D	-1.118052
-1.086794	V I E	-0.2090536
-1.785764	V I L	-2.9684
-0.5070107	V I N	-1.123966
-1.086794	V I O	-0.752839
-0.7857643	V I S	-0.7358969
-0.9406663	V I T	-0.2621255
-1.342857	V O C	-2.967849
-1.342857	V O I	-2.977746
-0.4977592	V O L	-2.937687
-1.041827	V O R	-0.3958096
-0.7407972	V O T	-1.420484
-0.4977592	V O U	-2.87882
-0.0004345118	V U L	-0.7310463
-1.021624	W <space> A	0.03407044
-1.498745	W <space> B	-2.920433
-1.674836	W <space> C	-0.1483747
-1.674836	W <space> D	-2.000125
-1.674836	W <space> E	-0.5775808
-1.975866	W <space> F	-0.1797427
-1.498745	W <space> G	0.002976206
-1.162953	W <space> H	0.5288039
-0.896685	W <space> I	1.499172
-1.577926	W <space> L	0.2554181
-1.235504	W <space> M	0.0578329
-1.799775	W <space> N	-0.1619929
-1.498745	W <space> O	-0.5045006
-1.577926	W <space> P	-1.102039
-2.276896	W <space> Q	-0
-2.276896	W <space> R	-2.559117
-1.322654	W <space> S	-0.8862888
-0.7328282	W <space> T	-2.14795
-1.674836	W <space> U	-0.04716785
-1.046447	W <space> W	-1.311704
-1.235504	W <space> Y	-1.719584
-1.678041	W A D	-0.2016692
-2.377011	W A G	-2.985657
-1.20092	W A I	-2.953314
-1.89989	W A L	-1.312254
-1.098258	W A N	-2.966805
-1.015284	W A R	-0.6370678
-0.4085285	W A S	-1.261677
-1.774951	W A T	-1.410976
-0.5019501	W A Y	-1.54416
-0.3014645	W D E	-2.982433
-0.3014645	W D S	-2.871483
-0.7754273	W E <space>	-0.5955979
-1.359004	W E A	-0.04160839
-1.483943	W E D	-2.234835
-0.9757871	W E E	-2.764607
-0.5930871	W E L	-2.77366
-0.6673331	W E N	-2.786808
-0.8699834	W E R	-0.7820593
-1.359004	W E V	-1.789197
-0.0004345118	W F U	-2.31627
-0.4243692	W H A	-2.750412
-0.690325	W H E	-1.71148
-1.19848	W H I	-2.957691
-0.6024945	W H O	-1.195235
-0.9766316	W H Y	-0.8628013
-1.224948	W I C	-0.4501473
-2.338891	W I D	-2.785652
-1.736831	W I F	-0.5957614
-0.4524004	W I L	-1.643032
-1.338891	W I N	-0.8493996
-2.338891	W I P	-2.912946
-1.134771	W I S	-2.981404
-0.3566199	W I T	-2.921582
-0.0004345118	W L E	-0.3773867
-0.8297383	W N </s>
-0.07007046	W N <space>	0.2011132
-2.32677	W O </s>
-1.372528	W O <space>	-0.7224906
-2.32677	W O E	-2.985774
-1.048017	W O M	-2.585118
-0.9465592	W O N	-2.742204
-2.32677	W O O	-2.981866
-2.32677	W O P	-2.847573
-0.4024912	W O R	-1.708119
-0.4694379	W O U	-2.90861
-1.176526	W R E	-2.980983
-0.3314278	W R I	-2.978235
-0.3314278	W R O	-0.7838245
-1.176526	W S </s>
-0.09734453	W S <space>	-0.3108627
-0.8754958	W S P	-0.3515452
-1.176526	X <space> A	-2.97173
-0.8754958	X <space> B	-0.1334732
-1.176526	X <space> E	-2.922595
-1.176526	X <space> H	-2.668591
-1.176526	X <space> I	-2.876664
-0.8754958	X <space> M	-0.3371594
-1.176526	X <space> O	-2.97547
-1.176526	X <space> S	-2.969534
-0.5744658	X <space> T	-1.103472
-1.176526	X <space> U	-2.708931
-0.1553365	X A C	-2.836995
-0.5233133	X A M	-0.5397413
-0.0004345118	X B O	-2.99657
-0.2000068	X C E	-0.5346176
-0.8020668	X C I	-1.309646
-0.6771281	X C U	-0.6896523
-0.4775558	X E D	-2.240641
-0.1765258	X E S	-2.786318
-0.0004345118	X H A	-2.996955
-0.9035245	X I E	-2.980082
-0.2045545	X I O	-0.1440925
-0.6024945	X I S	-0.3497134
-0.4775558	X O N	-2.995371
-0.1765258	X O T	-0.3830453
-0.3148285	X P E	-2.598424
-0.6158585	X P L	-0.2316273
-1.518948	X P O	-2.718079
-0.6738505	X P R	-2.833588
-1.518948	X P U	-2.903199
-0.0004345118	X Q U	-2.511549
-0.4126149	X T <space>	-0.4003144
-1.491796	X T E	-2.930371
-0.2365237	X T R	-2.713889
-0.0004345118	X U R	-2.923763
-0.3014645	X Y </s>
-0.3014645	X Y <space>	-2.9987
-0.9898453	Y <space> A	0.2115511
-1.275307	Y <space> B	1.233103
-1.320386	Y <space> C	1.445756
-1.153438	Y <space> D	0.6972144
-1.664168	Y <space> E	0.6800242
-1.394172	Y <space> F	1.465564
-1.595087	Y <space> G	1.264353
-1.427596	Y <space> H	-0.1219428
-1.002714	Y <space> I	0.6073097
